9888 16148
40.714050 -73.997610
40.713560 -73.998580
40.713770 -73.998070
40.859520 -73.931970
40.713880 -73.997850
40.856500 -73.932760
40.709630 -74.001080
40.709650 -74.001240
40.709650 -74.001360
40.709620 -74.001560
40.769390 -73.974990
40.772720 -73.968500
40.754350 -74.006700
40.863870 -73.932450
40.864010 -73.932510
40.864150 -73.932560
40.864170 -73.932570
40.864190 -73.932580
40.864480 -73.932580
40.864630 -73.932510
40.720300 -73.993960
40.730680 -73.973330
40.720260 -73.994000
40.864800 -73.932450
40.864990 -73.932370
40.863420 -73.932450
40.647350 -74.499520
40.865220 -73.932270
40.865360 -73.932190
40.863320 -73.930020
40.865430 -73.932090
40.865540 -73.931980
40.865610 -73.931880
40.709240 -74.000370
40.715980 -73.997320
40.797290 -73.944520
40.865650 -73.931790
40.844270 -73.930420
40.738220 -73.986630
40.865670 -73.931680
40.756170 -73.995890
40.852480 -73.927680
40.734200 -73.974880
40.759020 -74.000220
40.735720 -73.975200
40.758920 -73.999970
40.858880 -73.932570
40.734530 -73.992260
40.736050 -73.975220
40.729840 -74.010660
40.736230 -73.975210
40.724880 -74.002610
40.736360 -73.975180
40.865670 -73.931580
40.758530 -73.998770
40.736540 -73.975150
40.852900 -73.937590
40.723680 -73.996470
40.736690 -73.975090
40.718900 -74.012380
40.757930 -73.997340
40.757790 -73.997080
40.855830 -73.923030
40.865670 -73.931480
40.855560 -73.923110
40.736830 -73.975020
40.855250 -73.923230
40.865650 -73.931360
40.788420 -73.951000
40.854950 -73.923400
40.865630 -73.931260
40.865570 -73.931170
40.738800 -73.973600
40.739020 -73.973470
40.739230 -73.973380
40.647350 -74.499520
40.647350 -74.499520
40.739440 -73.973290
40.838750 -73.939630
40.739630 -73.973240
40.739880 -73.973190
40.647350 -74.499520
40.740160 -73.973160
40.647350 -74.499520
40.865430 -73.931020
40.647350 -74.499520
40.865350 -73.930960
40.865250 -73.930920
40.865140 -73.930890
40.852640 -73.941360
40.865040 -73.930880
40.827490 -73.935320
40.864930 -73.930880
40.714410 -73.992130
40.864810 -73.930910
40.745930 -74.008000
40.864690 -73.930940
40.746020 -74.007830
40.753220 -73.998580
40.864540 -73.931020
40.798650 -73.954670
40.827230 -73.935310
40.827120 -73.935300
40.745960 -74.007960
40.741780 -73.972870
40.742100 -73.972770
40.720930 -73.993710
40.742430 -73.972630
40.738680 -74.009980
40.758940 -73.999700
40.742780 -73.972460
40.743960 -74.008430
40.789520 -73.937310
40.822050 -73.944040
40.856190 -73.922970
40.738690 -74.009630
40.756660 -73.995130
40.736780 -74.005680
40.744050 -74.008510
40.756730 -73.995210
40.746000 -74.007880
40.737650 -74.001690
40.746010 -73.998770
40.733780 -74.000300
40.737640 -74.001630
40.738740 -74.009860
40.738720 -74.009600
40.746010 -73.998860
40.746030 -73.998290
40.745990 -74.007930
40.733720 -74.000310
40.744100 -74.008520
40.746020 -73.998950
40.746040 -73.998390
40.773410 -73.970150
40.738180 -74.009640
40.863870 -73.931430
40.773450 -73.969300
40.756710 -73.995950
40.708980 -74.012140
40.749550 -74.006410
40.746020 -74.007770
40.738920 -74.009700
40.704830 -74.017030
40.746060 -73.999150
40.746000 -74.007700
40.743160 -74.008640
40.726930 -73.972160
40.759180 -73.958920
40.737610 -74.001550
40.744060 -73.987740
40.743170 -74.008590
40.736600 -74.005840
40.746040 -73.999050
40.738910 -74.009870
40.746610 -73.993810
40.743990 -74.008480
40.704880 -74.016390
40.738750 -74.002320
40.749500 -74.006380
40.738950 -74.009640
40.746020 -73.998200
40.743150 -74.008680
40.744020 -74.008490
40.738730 -74.002250
40.749510 -74.000610
40.749460 -74.006530
40.750200 -74.002330
40.800490 -73.930170
40.647350 -74.499520
40.752360 -74.007560
40.800450 -73.930320
40.777870 -73.942970
40.774600 -73.975240
40.710810 -73.983250
40.711340 -73.983310
40.733950 -74.010290
40.777340 -73.942790
40.720320 -74.005490
40.765390 -73.997660
40.720360 -74.005960
40.796940 -73.949630
40.720400 -74.006420
40.720430 -74.006690
40.777030 -73.942700
40.776790 -73.942650
40.776580 -73.942620
40.720050 -74.005650
40.720990 -73.993940
40.776300 -73.942600
40.710990 -74.004150
40.776060 -73.942610
40.711340 -74.003750
40.711440 -74.003970
40.720680 -74.009300
40.711460 -74.004040
40.711450 -74.004000
40.710890 -74.003410
40.775810 -73.942650
40.711180 -74.003490
40.711430 -74.003930
40.720750 -74.010070
40.775540 -73.942710
40.775290 -73.942810
40.711220 -74.003580
40.711270 -74.003650
40.775060 -73.942910
40.711060 -74.004310
40.720950 -74.011910
40.710770 -74.003060
40.711320 -74.003720
40.710860 -74.003290
40.774650 -73.943180
40.774490 -73.943310
40.710880 -74.003360
40.790940 -73.949160
40.783990 -73.969150
40.771480 -73.946480
40.750550 -74.008250
40.789630 -73.946080
40.801710 -73.930240
40.711360 -74.003790
40.710400 -74.017700
40.711400 -74.003870
40.770160 -73.947720
40.792340 -73.952520
40.791670 -73.950910
40.711200 -74.003530
40.711020 -74.004240
40.711250 -74.003610
40.711420 -74.003900
40.787690 -73.941470
40.769480 -73.948370
40.788680 -73.943850
40.712070 -74.008240
40.788980 -73.944570
40.822650 -73.934270
40.724610 -73.991630
40.813810 -73.934480
40.816880 -73.961160
40.765840 -73.951470
40.827950 -73.934790
40.827980 -73.934980
40.746030 -73.971080
40.749590 -74.008110
40.749100 -73.984070
40.870220 -73.930550
40.748430 -73.982470
40.747700 -73.980740
40.747060 -73.979230
40.747750 -74.007690
40.746640 -73.978230
40.746390 -73.977630
40.746030 -73.976780
40.745440 -73.975390
40.748450 -74.007620
40.745170 -73.974740
40.748920 -74.007770
40.771600 -73.984640
40.760690 -74.002380
40.744450 -73.973020
40.731030 -73.973650
40.743850 -73.971660
40.708110 -73.999240
40.771620 -73.984680
40.706650 -74.015900
40.866900 -73.932400
40.769350 -73.994790
40.841700 -73.935550
40.864070 -73.933980
40.794280 -73.947070
40.842310 -73.937020
40.793770 -73.961790
40.803320 -73.952770
40.844600 -73.942450
40.869570 -73.930880
40.702600 -74.016220
40.781320 -73.963670
40.730570 -73.990540
40.709040 -74.008890
40.701400 -74.011920
40.719400 -73.991320
40.701850 -74.009970
40.733840 -74.010100
40.702700 -74.008330
40.765400 -73.997920
40.703300 -74.007350
40.777290 -73.974130
40.799540 -73.957600
40.703560 -74.006920
40.738510 -74.010100
40.853660 -73.940610
40.759620 -73.995470
40.703910 -74.006370
40.719660 -73.992200
40.714590 -73.990230
40.856420 -73.932790
40.771780 -73.978220
40.705530 -74.003850
40.758780 -73.999550
40.760350 -73.985410
40.869680 -73.930240
40.803890 -73.958200
40.781850 -73.971400
40.781670 -73.971360
40.781120 -73.971490
40.780390 -73.971540
40.780080 -73.971250
40.715860 -73.995040
40.708900 -73.997000
40.767560 -73.976240
40.718700 -73.989050
40.709030 -73.996040
40.794370 -73.959350
40.804710 -73.958240
40.867220 -73.930710
40.867440 -73.930490
40.766830 -73.944660
40.774670 -73.974270
40.810750 -73.935040
40.754440 -74.006910
40.750590 -74.008440
40.709970 -73.989390
40.718930 -73.989810
40.749530 -74.008290
40.749180 -74.008100
40.710290 -73.986600
40.748580 -74.007840
40.827840 -73.935140
40.747800 -74.007860
40.827660 -73.935240
40.865690 -73.928930
40.746150 -74.008160
40.862910 -73.932520
40.855630 -73.927410
40.710820 -73.980520
40.742110 -74.008930
40.851830 -73.930200
40.849940 -73.929710
40.711080 -73.979310
40.865840 -73.929630
40.863750 -73.929830
40.718460 -73.988250
40.757760 -73.998880
40.868290 -73.919040
40.711370 -73.978700
40.866800 -73.930910
40.711500 -73.978520
40.866520 -73.930530
40.727820 -73.994750
40.836740 -73.948400
40.827030 -73.940140
40.726170 -74.011070
40.718220 -73.987460
40.782040 -73.960520
40.777160 -73.964160
40.777530 -73.964590
40.778230 -73.966750
40.815780 -73.956580
40.717870 -73.986650
40.757210 -73.995760
40.757630 -73.996830
40.713430 -73.998470
40.778160 -73.966260
40.711710 -74.007330
40.864300 -73.933300
40.810310 -73.943620
40.865280 -73.932870
40.756850 -73.995190
40.738640 -74.010030
40.812080 -73.947810
40.709820 -74.014730
40.720190 -73.993860
40.756680 -73.995040
40.871600 -73.915050
40.840470 -73.935290
40.841060 -73.936020
40.756600 -73.995000
40.788670 -73.965100
40.802590 -73.945050
40.716440 -73.988360
40.715880 -74.013100
40.862080 -73.934460
40.756430 -73.994940
40.864170 -73.933340
40.736910 -73.974970
40.742510 -73.989200
40.756330 -73.994940
40.721980 -73.985510
40.717690 -73.986200
40.801180 -73.941690
40.864590 -73.928970
40.790410 -73.949890
40.820110 -73.959520
40.848740 -73.943070
40.800550 -73.940200
40.756140 -73.994970
40.798930 -73.936360
40.790760 -73.970500
40.791720 -73.972770
40.799270 -73.955480
40.848770 -73.943140
40.793340 -73.974670
40.796980 -73.931740
40.829150 -73.937280
40.862260 -73.935200
40.768380 -73.981500
40.762050 -73.961980
40.769900 -73.980560
40.770520 -73.980110
40.767010 -73.978970
40.771150 -73.979650
40.768780 -73.971510
40.768800 -73.970790
40.771780 -73.979190
40.779580 -73.970440
40.709850 -74.015060
40.772410 -73.978720
40.711080 -74.014660
40.774280 -73.977360
40.715230 -74.013550
40.774900 -73.976910
40.715080 -73.994570
40.775530 -73.976450
40.776210 -73.975950
40.717920 -73.993090
40.720330 -74.012280
40.755180 -73.995960
40.717230 -74.013020
40.723420 -73.990270
40.777530 -73.974990
40.711500 -74.014520
40.746530 -73.985940
40.702800 -74.012340
40.778160 -73.974530
40.756270 -73.995030
40.702400 -74.012920
40.779460 -73.969940
40.703560 -74.011880
40.778800 -73.974060
40.779000 -73.968700
40.779110 -73.968950
40.760900 -73.964110
40.783340 -73.970790
40.704920 -74.015740
40.704790 -74.014920
40.734260 -73.983540
40.786590 -73.968380
40.788480 -73.967030
40.789100 -73.966570
40.789730 -73.966100
40.790360 -73.965660
40.722510 -74.006820
40.712060 -74.004890
40.790990 -73.965200
40.793010 -73.963710
40.794850 -73.962350
40.718760 -73.974960
40.795480 -73.961890
40.718800 -73.974840
40.796110 -73.961440
40.796730 -73.960970
40.797360 -73.960520
40.721860 -73.977360
40.835020 -73.935900
40.799350 -73.959080
40.799980 -73.958630
40.830270 -73.934990
40.800330 -73.958360
40.709730 -74.001030
40.827910 -73.935150
40.861310 -73.921230
40.819550 -73.934180
40.810620 -73.958270
40.711670 -74.007670
40.754380 -73.998000
40.801760 -73.961050
40.814460 -73.935370
40.805430 -73.959820
40.810350 -73.935360
40.812050 -73.934530
40.720450 -74.012260
40.807410 -73.958390
40.811820 -73.935500
40.771690 -73.947120
40.741910 -73.972440
40.808040 -73.957930
40.708560 -74.000170
40.791660 -73.948980
40.772450 -73.962960
40.809400 -73.957240
40.753860 -73.998320
40.774250 -73.945260
40.767850 -73.966010
40.799960 -73.946970
40.799280 -73.945360
40.775600 -73.944270
40.798550 -73.943610
40.704910 -74.015520
40.797930 -73.942120
40.797250 -73.940520
40.704680 -74.014380
40.796310 -73.938270
40.753500 -73.998430
40.795320 -73.935900
40.858510 -73.937910
40.794370 -73.933640
40.856270 -73.939600
40.855250 -73.940310
40.854180 -73.941000
40.853510 -73.941420
40.852960 -73.941800
40.852360 -73.942330
40.851940 -73.942760
40.850450 -73.944540
40.861140 -73.918920
40.647350 -74.499520
40.856800 -73.924670
40.861930 -73.920770
40.753040 -73.998700
40.748460 -73.992460
40.854180 -73.933830
40.749100 -73.992000
40.792500 -73.954630
40.758910 -73.997830
40.857150 -73.924680
40.827140 -73.935050
40.857300 -73.924720
40.713930 -73.999550
40.714450 -73.999590
40.857440 -73.924760
40.859920 -73.936700
40.759440 -73.997110
40.715160 -73.999650
40.857600 -73.924840
40.855540 -73.929170
40.857760 -73.924930
40.715910 -73.999320
40.717090 -73.998580
40.857890 -73.925030
40.759290 -73.996730
40.738870 -74.009790
40.718150 -73.997930
40.874310 -73.910360
40.728910 -73.997080
40.718470 -73.997730
40.858060 -73.925200
40.718790 -73.997550
40.875720 -73.908330
40.719160 -73.997370
40.719320 -73.997300
40.858120 -73.925310
40.721950 -73.996260
40.871410 -73.913640
40.723360 -73.995700
40.720220 -74.012310
40.740750 -73.973030
40.795410 -73.953370
40.764910 -73.992340
40.875800 -73.908400
40.724070 -73.995350
40.704810 -74.016910
40.708410 -74.004740
40.708490 -73.998310
40.858200 -73.925540
40.724950 -73.994900
40.858220 -73.925680
40.780220 -73.961370
40.779540 -73.959770
40.858210 -73.925990
40.850180 -73.944760
40.858190 -73.926140
40.838360 -73.947680
40.858160 -73.926240
40.828330 -73.948990
40.763020 -73.999600
40.716440 -74.013060
40.858090 -73.926350
40.764210 -73.998510
40.858020 -73.926470
40.765450 -73.997610
40.766440 -74.019490
40.728590 -73.971790
40.766700 -73.996690
40.773620 -73.945720
40.787170 -73.949980
40.762500 -74.000340
40.763600 -73.998980
40.857710 -73.926710
40.772760 -73.968270
40.764830 -73.998070
40.857650 -73.926760
40.827350 -73.935330
40.716930 -73.984250
40.740020 -74.009780
40.857570 -73.926850
40.826660 -73.935310
40.716430 -73.982580
40.857480 -73.926930
40.715920 -73.980870
40.763300 -73.999280
40.784750 -73.967110
40.857160 -73.927380
40.850080 -73.930040
40.715400 -73.979220
40.741100 -73.972980
40.842680 -73.945170
40.715140 -73.978370
40.758950 -73.968470
40.714820 -73.977560
40.876680 -73.908510
40.756760 -73.995270
40.845840 -73.944820
40.877210 -73.909060
40.827010 -73.935320
40.742320 -73.989100
40.851370 -73.929110
40.715030 -73.987120
40.737540 -74.004830
40.746520 -73.972210
40.708880 -73.996740
40.738130 -74.004170
40.745900 -73.972650
40.738390 -74.003860
40.766890 -73.944550
40.711870 -74.004520
40.745700 -73.973370
40.711890 -74.004590
40.855320 -73.929340
40.821890 -73.934270
40.769290 -73.941660
40.739730 -74.002470
40.754880 -73.962490
40.740440 -74.002010
40.741070 -74.001550
40.859490 -73.935910
40.795750 -73.954580
40.710720 -74.002020
40.741660 -74.001120
40.860480 -73.935110
40.711090 -74.004340
40.710850 -74.002140
40.754860 -73.962550
40.742830 -74.000270
40.711160 -74.004380
40.754810 -73.962530
40.710940 -74.002230
40.711310 -74.004360
40.711330 -74.004350
40.712130 -74.003550
40.711350 -74.004330
40.731870 -74.008780
40.712370 -74.003610
40.864510 -73.929080
40.759050 -73.958550
40.711380 -74.004310
40.827560 -73.935280
40.725180 -73.990160
40.746580 -73.997550
40.711460 -74.004140
40.723120 -74.006230
40.747200 -73.997090
40.748420 -73.996190
40.712350 -74.003580
40.749670 -73.995290
40.750290 -73.994840
40.711490 -74.003310
40.711450 -74.004170
40.871070 -73.915810
40.722380 -74.003760
40.752190 -73.993450
40.752850 -73.992970
40.711180 -74.004380
40.711440 -74.004200
40.711430 -74.004230
40.748500 -73.974970
40.754090 -73.992070
40.793390 -73.961450
40.711460 -74.004110
40.708690 -73.999680
40.740370 -74.009700
40.721620 -74.002200
40.711200 -74.004380
40.712140 -74.004360
40.756560 -73.990270
40.785710 -73.983080
40.712140 -74.005100
40.755490 -73.995920
40.720430 -73.999860
40.857020 -73.922940
40.712160 -74.005410
40.757900 -73.989290
40.712160 -74.005500
40.758530 -73.988840
40.718770 -73.995680
40.711910 -74.005840
40.759790 -73.987920
40.760400 -73.987470
40.774440 -73.972710
40.855210 -73.939760
40.761030 -73.987010
40.846470 -73.932070
40.718140 -73.993820
40.762290 -73.986100
40.762910 -73.985640
40.712720 -74.004400
40.712290 -74.003540
40.712240 -74.003520
40.740470 -74.009710
40.717200 -73.990700
40.710890 -74.002340
40.862610 -73.929980
40.711320 -74.002480
40.850530 -73.943060
40.852440 -73.941510
40.806410 -73.942260
40.716700 -73.989150
40.763520 -73.985200
40.712300 -74.004120
40.744750 -74.008410
40.751120 -73.971260
40.711740 -74.002820
40.765590 -73.947120
40.765410 -73.983820
40.711990 -74.004770
40.712340 -74.004080
40.711650 -74.002710
40.766710 -73.982870
40.767390 -73.982380
40.754820 -73.997470
40.711790 -74.003060
40.767660 -73.982150
40.714930 -73.983330
40.711790 -74.003010
40.711770 -74.003150
40.714650 -73.982340
40.754690 -73.997740
40.712390 -74.004020
40.713970 -73.979960
40.800320 -73.929590
40.711970 -74.003760
40.800840 -73.957980
40.752950 -73.969910
40.713740 -73.993940
40.847770 -73.944110
40.766160 -73.972570
40.849500 -73.943280
40.801230 -73.957690
40.801850 -73.957230
40.711450 -74.003300
40.711360 -74.003240
40.712180 -74.003520
40.711560 -74.003320
40.718090 -73.986550
40.803110 -73.956320
40.712600 -74.004470
40.754150 -73.998320
40.803740 -73.955860
40.804420 -73.955360
40.754030 -73.998400
40.805090 -73.954870
40.805720 -73.954410
40.712200 -74.004420
40.711750 -74.003190
40.647350 -74.499520
40.712360 -74.004500
40.806350 -73.953950
40.713670 -74.006700
40.712420 -74.003710
40.712440 -74.003800
40.813860 -73.962010
40.766710 -73.944330
40.753660 -73.998570
40.807600 -73.953040
40.712400 -74.003670
40.711220 -74.004380
40.733750 -74.000300
40.767650 -73.981650
40.711250 -74.004380
40.808230 -73.952580
40.767390 -73.981660
40.767590 -73.981730
40.702660 -74.012870
40.730210 -73.975780
40.767570 -73.981700
40.753260 -73.998690
40.808860 -73.952120
40.749390 -74.006550
40.767480 -73.981660
40.749480 -74.006340
40.767520 -73.981670
40.810840 -73.950680
40.710800 -74.003260
40.833830 -73.935230
40.702120 -74.012760
40.711910 -74.005070
40.812100 -73.949750
40.710730 -74.003000
40.828600 -73.934740
40.794270 -73.972970
40.751930 -73.999590
40.812720 -73.949300
40.815270 -73.935780
40.711950 -74.005160
40.711970 -74.005300
40.749500 -74.006530
40.749550 -74.006590
40.711940 -74.005980
40.773620 -73.970910
40.712030 -74.003630
40.710850 -74.003250
40.751590 -73.999600
40.712110 -74.005020
40.815830 -73.947030
40.786580 -73.983320
40.804800 -73.968150
40.758740 -73.997650
40.804860 -73.968180
40.758720 -73.997760
40.816500 -73.946540
40.804940 -73.968180
40.758700 -73.997890
40.805030 -73.968170
40.817170 -73.946050
40.817800 -73.945590
40.815160 -73.964290
40.814890 -73.964480
40.814580 -73.964660
40.814260 -73.964820
40.813810 -73.965100
40.819040 -73.944680
40.813020 -73.965660
40.820290 -73.943770
40.820910 -73.943320
40.811270 -73.966960
40.821540 -73.942860
40.809890 -73.967830
40.822160 -73.942410
40.808180 -73.968930
40.807550 -73.969390
40.823500 -73.941420
40.806790 -73.969960
40.805770 -73.970770
40.804640 -73.971650
40.824130 -73.940970
40.802160 -73.973460
40.801520 -73.973890
40.824750 -73.940510
40.800620 -73.974440
40.800220 -73.974670
40.758800 -73.999010
40.825640 -73.939860
40.826000 -73.939600
40.797620 -73.975730
40.797220 -73.975900
40.758830 -73.999130
40.826620 -73.939140
40.796340 -73.976420
40.738590 -74.010070
40.805680 -73.967990
40.760230 -73.957310
40.795590 -73.977140
40.827250 -73.938690
40.805690 -73.968050
40.703150 -74.012530
40.827870 -73.938230
40.703040 -74.012980
40.793480 -73.979500
40.828500 -73.937780
40.792700 -73.980180
40.817430 -73.955590
40.819960 -73.959820
40.818130 -73.960250
40.756670 -73.995910
40.800730 -73.958490
40.818790 -73.960850
40.712790 -73.997110
40.780850 -73.958810
40.713020 -73.994450
40.703010 -74.014380
40.702740 -74.014230
40.713090 -73.993610
40.713160 -73.992620
40.702400 -74.013760
40.713380 -73.990120
40.713510 -73.988600
40.709070 -74.014050
40.713630 -73.987060
40.709410 -74.014870
40.713770 -73.985090
40.820820 -73.950810
40.799220 -73.975110
40.758760 -73.998290
40.821700 -73.952900
40.758780 -73.998110
40.758790 -73.998060
40.803690 -73.939850
40.818300 -73.960120
40.818030 -73.960450
40.758880 -73.998010
40.814670 -73.936220
40.749630 -74.006400
40.749670 -74.006380
40.808920 -73.964600
40.816020 -73.939450
40.808660 -73.965410
40.817790 -73.961710
40.818450 -73.961030
40.721460 -73.988520
40.759020 -73.998110
40.817220 -73.942290
40.756650 -73.978560
40.738780 -74.009740
40.844630 -73.945080
40.707570 -74.004120
40.819000 -73.946520
40.856630 -73.931000
40.802720 -73.933090
40.812610 -73.939440
40.812780 -73.939800
40.812900 -73.940060
40.818230 -73.952700
40.813430 -73.941340
40.814630 -73.944190
40.754310 -73.976770
40.777870 -73.951740
40.754330 -73.976620
40.729940 -73.997360
40.771720 -73.963180
40.723280 -74.008000
40.723430 -74.009530
40.802660 -73.967860
40.802970 -73.967710
40.723620 -74.011380
40.802800 -73.967820
40.802420 -73.967890
40.802380 -73.967670
40.802590 -73.967620
40.802750 -73.967590
40.798910 -73.975040
40.798950 -73.975210
40.735790 -74.001540
40.795900 -73.975160
40.720230 -73.984470
40.794340 -73.978580
40.716920 -74.010830
40.794270 -73.978410
40.796260 -73.974570
40.796520 -73.974090
40.796730 -73.973890
40.807480 -73.967040
40.796840 -73.974090
40.792880 -73.976950
40.793160 -73.976890
40.757710 -73.996860
40.718110 -74.010520
40.718800 -74.010400
40.766960 -73.979010
40.719450 -74.010290
40.720110 -74.010180
40.833400 -73.935220
40.721460 -74.009910
40.747820 -73.996640
40.722120 -74.009770
40.702320 -74.009340
40.861660 -73.924400
40.722780 -74.009650
40.724080 -74.009420
40.724570 -74.009340
40.724700 -74.009310
40.722340 -73.993200
40.725980 -74.009090
40.752060 -73.983420
40.737630 -74.009810
40.719070 -73.993360
40.748180 -74.007640
40.727460 -74.008840
40.714500 -73.984730
40.728190 -74.008720
40.798660 -73.943880
40.758740 -73.998880
40.758690 -73.998710
40.758650 -73.998580
40.758610 -73.998430
40.758550 -73.998270
40.768970 -73.972910
40.758430 -73.997970
40.728900 -74.008590
40.863120 -73.920610
40.864350 -73.932610
40.813910 -73.934610
40.729620 -74.008390
40.743650 -73.975330
40.730340 -74.008200
40.743740 -73.975540
40.758220 -73.997470
40.758150 -73.997320
40.793860 -73.961970
40.731780 -74.007800
40.758100 -73.997220
40.800860 -73.958050
40.800650 -73.958530
40.800550 -73.957760
40.800290 -73.958250
40.800870 -73.958150
40.800840 -73.958330
40.733580 -74.007340
40.800280 -73.958120
40.800440 -73.958500
40.800750 -73.957840
40.800780 -73.958440
40.800430 -73.957820
40.800370 -73.958430
40.800570 -73.958540
40.800820 -73.957920
40.800350 -73.957900
40.862460 -73.914170
40.758340 -73.998330
40.736950 -74.006490
40.851290 -73.940600
40.851300 -73.940920
40.851380 -73.941240
40.738130 -74.006460
40.750320 -74.008470
40.739400 -74.006440
40.779930 -73.944160
40.864240 -73.932590
40.772250 -73.969050
40.713980 -73.997480
40.710080 -73.994100
40.796820 -73.945220
40.708150 -73.999720
40.707110 -74.013960
40.871070 -73.911780
40.803330 -73.948720
40.870430 -73.912250
40.869490 -73.912950
40.708730 -74.013260
40.760970 -73.956190
40.709140 -74.013080
40.709350 -74.012990
40.793060 -73.979660
40.706230 -74.014320
40.807660 -73.937330
40.735310 -73.994110
40.765020 -73.973340
40.725790 -73.972260
40.734890 -74.003150
40.747010 -73.975790
40.733940 -74.010080
40.853580 -73.932220
40.855390 -73.937730
40.738920 -73.973600
40.765470 -73.997860
40.726100 -73.972110
40.734090 -74.008490
40.766140 -73.971640
40.737870 -73.974330
40.726410 -73.971980
40.799030 -73.955270
40.738900 -74.009640
40.707210 -74.002740
40.726610 -73.971920
40.787570 -73.982910
40.704280 -74.007670
40.725910 -74.008340
40.727000 -73.971840
40.737950 -73.974240
40.823660 -73.955320
40.799180 -73.955720
40.787160 -73.951920
40.795530 -73.955080
40.859180 -73.935220
40.851430 -73.927080
40.851850 -73.928140
40.748480 -74.007820
40.852470 -73.929600
40.802690 -73.933190
40.792140 -73.934830
40.854500 -73.934620
40.854910 -73.936030
40.792570 -73.934200
40.802740 -73.932990
40.855390 -73.937790
40.710630 -74.002440
40.711600 -74.003660
40.711960 -74.004140
40.855900 -73.938610
40.784240 -73.985080
40.836100 -73.934710
40.721320 -74.008340
40.721400 -74.009180
40.793860 -73.979110
40.721520 -74.010680
40.743050 -74.008750
40.721630 -74.011780
40.725480 -73.974720
40.705450 -74.006000
40.716180 -74.009200
40.746060 -73.973720
40.705790 -74.005520
40.717920 -74.008940
40.718270 -74.008880
40.808170 -73.956340
40.718640 -74.008810
40.758550 -73.954300
40.719020 -74.008740
40.719290 -74.008690
40.719950 -74.008580
40.779320 -73.969470
40.722620 -74.008110
40.707670 -74.000490
40.744160 -74.008530
40.731060 -73.974170
40.800500 -73.971740
40.724050 -74.004380
40.721610 -73.993460
40.718450 -73.994810
40.725190 -74.007660
40.725840 -74.007550
40.770990 -73.940280
40.725660 -73.993830
40.726600 -74.007430
40.736960 -74.008250
40.727320 -74.007320
40.730080 -73.972590
40.728050 -74.007200
40.728760 -74.007090
40.784230 -73.947060
40.758870 -73.999630
40.752900 -73.957170
40.781240 -73.987070
40.730220 -74.006850
40.647350 -74.499520
40.711290 -74.003680
40.647350 -74.499520
40.730940 -74.006730
40.647350 -74.499520
40.755540 -73.954610
40.731660 -74.006620
40.647350 -74.499520
40.732420 -74.006500
40.712080 -74.003580
40.733050 -74.006400
40.723680 -74.003630
40.733740 -74.006290
40.734430 -74.006180
40.735130 -74.006060
40.763150 -73.993980
40.735840 -74.005960
40.746000 -73.969990
40.763770 -73.993530
40.810010 -73.957170
40.736530 -74.005850
40.706990 -74.017940
40.763670 -73.993300
40.737120 -74.005750
40.764300 -73.992830
40.761780 -73.994630
40.725840 -73.994460
40.762410 -73.994170
40.734040 -73.974620
40.763040 -73.993730
40.647350 -74.499520
40.647350 -74.499520
40.737550 -74.005680
40.785980 -73.957160
40.761150 -73.995060
40.738130 -74.005590
40.784560 -73.953810
40.761270 -73.995350
40.781300 -73.946130
40.739410 -74.005390
40.717660 -74.007530
40.717080 -74.006240
40.760640 -73.995800
40.760530 -73.995540
40.709790 -74.014650
40.751610 -73.965160
40.740850 -74.005150
40.754070 -74.007130
40.869730 -73.918200
40.719220 -73.990250
40.760030 -73.982720
40.766790 -73.944670
40.757450 -74.000660
40.753870 -73.966150
40.790620 -73.942430
40.709090 -74.007800
40.772460 -73.967030
40.771780 -73.965430
40.828170 -73.934950
40.771040 -73.963680
40.770420 -73.962210
40.802360 -73.930160
40.769740 -73.960600
40.802610 -73.930200
40.719300 -73.990480
40.802900 -73.930300
40.758370 -73.972920
40.767800 -73.955990
40.822790 -73.955780
40.800960 -73.974060
40.755130 -73.965230
40.801150 -73.930520
40.801820 -73.973490
40.724390 -73.974410
40.765510 -73.972090
40.764840 -73.970490
40.742130 -73.977380
40.764100 -73.968740
40.804560 -73.971500
40.763480 -73.967270
40.724670 -73.974380
40.762800 -73.965660
40.768980 -73.972680
40.711040 -74.004280
40.773880 -73.972350
40.761850 -73.963420
40.711080 -74.004320
40.760860 -73.961060
40.715060 -73.976650
40.716510 -74.003300
40.795070 -73.939180
40.783460 -73.959000
40.782790 -73.957400
40.782050 -73.955650
40.781420 -73.954170
40.808420 -73.968570
40.780750 -73.952570
40.779800 -73.950330
40.778800 -73.947960
40.715240 -73.976570
40.710780 -74.002240
40.847070 -73.928390
40.776860 -73.943360
40.789650 -73.982010
40.861050 -73.926560
40.854470 -73.934550
40.863580 -73.928280
40.710760 -73.989870
40.711210 -73.989930
40.715590 -73.996400
40.725020 -74.005890
40.705790 -74.003860
40.776890 -73.959410
40.790310 -73.947680
40.799740 -73.926490
40.727110 -73.991600
40.741520 -73.987520
40.751620 -74.008070
40.711380 -74.003830
40.740850 -73.985870
40.797880 -73.919870
40.797600 -73.921500
40.797520 -73.921220
40.740170 -73.984260
40.797540 -73.920370
40.797680 -73.920120
40.739490 -73.982660
40.757050 -74.004630
40.749720 -73.983620
40.738540 -73.980410
40.755860 -73.998200
40.777310 -73.966960
40.856580 -73.922930
40.737550 -73.978050
40.706170 -74.014130
40.792960 -73.952070
40.725760 -74.010850
40.792290 -73.950460
40.791550 -73.948710
40.750080 -73.968830
40.790930 -73.947230
40.750800 -73.978500
40.749110 -73.974510
40.790250 -73.945630
40.711000 -74.004220
40.789310 -73.943390
40.760530 -74.002190
40.765070 -73.973280
40.788310 -73.941010
40.710980 -74.004120
40.737040 -73.974460
40.795580 -73.950150
40.794910 -73.948550
40.794170 -73.946800
40.799640 -73.925960
40.793540 -73.945320
40.792870 -73.943720
40.867680 -73.916700
40.868930 -73.915800
40.791900 -73.941500
40.719080 -74.006430
40.790900 -73.939130
40.719100 -74.006960
40.785590 -73.983870
40.761690 -73.962250
40.728600 -74.005310
40.860240 -73.935200
40.718860 -74.006590
40.718990 -74.006820
40.748220 -74.007810
40.865500 -73.931080
40.764770 -73.952760
40.733800 -74.010310
40.728980 -74.009350
40.831410 -73.949600
40.759060 -73.978440
40.732570 -73.981430
40.752790 -73.965200
40.733750 -73.980570
40.733960 -73.977780
40.732980 -73.975430
40.759730 -73.974220
40.753310 -73.964810
40.758370 -73.970990
40.757700 -73.969390
40.757000 -73.953000
40.756760 -73.967150
40.868790 -73.931150
40.798220 -73.957700
40.755750 -73.964780
40.768390 -73.949350
40.754850 -73.962650
40.754790 -73.962370
40.755170 -73.961680
40.731990 -73.990210
40.815510 -73.955940
40.807710 -73.941310
40.851590 -73.942420
40.733680 -73.989840
40.810270 -73.947370
40.733860 -73.989830
40.734040 -73.989840
40.812690 -73.953120
40.734220 -73.989860
40.791710 -73.978750
40.734400 -73.989910
40.754620 -73.962200
40.813550 -73.955200
40.815030 -73.956470
40.717290 -74.013160
40.798070 -73.957310
40.744620 -73.985240
40.863540 -73.919760
40.743940 -73.983620
40.734680 -73.999970
40.743260 -73.982000
40.742580 -73.980410
40.741620 -73.978180
40.740640 -73.975800
40.845140 -73.924300
40.749760 -74.008390
40.722050 -74.005020
40.722710 -74.004440
40.801810 -73.931330
40.647350 -74.499520
40.723440 -74.003820
40.723630 -73.981430
40.731400 -73.996970
40.722890 -73.979730
40.721880 -73.977340
40.735300 -74.000350
40.725790 -73.986620
40.726110 -74.001590
40.853230 -73.941600
40.727280 -74.000630
40.724160 -74.001120
40.724860 -73.984400
40.723880 -73.982080
40.747270 -73.977810
40.730280 -73.998070
40.802300 -73.930030
40.746390 -73.981740
40.851770 -73.941780
40.743090 -73.974010
40.803530 -73.930460
40.844900 -73.933220
40.845520 -73.934680
40.852360 -73.935790
40.723650 -73.991010
40.846620 -73.937310
40.852310 -73.935630
40.803730 -73.931200
40.751500 -73.967800
40.778010 -73.965270
40.779770 -73.944080
40.779660 -73.943840
40.847660 -73.942180
40.783420 -73.943190
40.802700 -73.949180
40.781490 -73.944260
40.783600 -73.942990
40.782910 -73.943680
40.803950 -73.948270
40.713580 -73.998480
40.729880 -74.001340
40.785040 -73.984760
40.730240 -74.001020
40.783920 -73.942530
40.805830 -73.946900
40.733970 -74.000350
40.807090 -73.945970
40.806510 -73.934720
40.807770 -73.945480
40.806170 -73.934860
40.806010 -73.935320
40.806010 -73.934860
40.805860 -73.934790
40.809690 -73.944080
40.766670 -73.944360
40.810940 -73.943170
40.814100 -73.940850
40.784880 -73.983630
40.751440 -73.973950
40.715950 -73.986720
40.712100 -74.003560
40.756860 -74.004770
40.747500 -73.968800
40.868020 -73.931700
40.732670 -74.008600
40.856690 -73.929030
40.720020 -73.992830
40.732470 -74.009860
40.767400 -73.978660
40.842430 -73.931130
40.776310 -73.964220
40.775620 -73.962630
40.774880 -73.960880
40.774250 -73.959410
40.773570 -73.957810
40.772620 -73.955570
40.771610 -73.953210
40.839280 -73.937330
40.738900 -73.987300
40.870920 -73.917910
40.871580 -73.917000
40.738620 -73.986630
40.800590 -73.971620
40.746810 -73.975570
40.812830 -73.934560
40.733520 -73.989860
40.732600 -73.987680
40.731650 -73.985440
40.730650 -73.983060
40.729720 -73.980850
40.728740 -73.978530
40.728050 -73.976880
40.796430 -73.956760
40.727760 -73.976210
40.726750 -73.973790
40.729730 -74.002410
40.867810 -73.923620
40.728850 -74.005260
40.869000 -73.920320
40.710770 -73.983840
40.735100 -73.990200
40.740140 -73.976160
40.711300 -73.983910
40.752030 -74.001010
40.803460 -73.930570
40.719210 -73.977260
40.852270 -73.941680
40.791560 -73.968470
40.792750 -73.971310
40.823670 -73.943820
40.744000 -73.985690
40.745880 -74.008030
40.793640 -73.973430
40.701110 -74.013880
40.854060 -73.940360
40.794820 -73.976230
40.734950 -73.990450
40.713700 -74.013730
40.715240 -73.987070
40.714480 -74.013490
40.859450 -73.933960
40.735980 -73.989450
40.736540 -73.989040
40.715660 -74.013110
40.803880 -73.928610
40.752830 -73.966900
40.840190 -73.943060
40.719040 -74.012340
40.753710 -74.007280
40.753670 -74.007070
40.706010 -74.008810
40.756150 -74.000790
40.803230 -73.930090
40.749800 -74.008200
40.853530 -73.938370
40.746170 -73.969610
40.789050 -73.970300
40.802990 -73.930160
40.790240 -73.973140
40.716190 -73.987530
40.746540 -73.969190
40.722280 -73.980170
40.792160 -73.977690
40.802900 -73.967510
40.746890 -73.968870
40.718570 -73.983390
40.709100 -73.995070
40.718820 -73.984230
40.733140 -74.010160
40.719080 -73.985070
40.867690 -73.921210
40.719330 -73.985910
40.719590 -73.986750
40.719830 -73.987540
40.717870 -73.997100
40.736940 -74.009830
40.804480 -73.931300
40.738140 -74.009570
40.720070 -73.988350
40.739180 -74.009720
40.739550 -74.009610
40.795350 -73.958350
40.739740 -74.009490
40.720300 -73.989110
40.720460 -73.989620
40.720530 -73.989850
40.721020 -73.991500
40.849670 -73.940730
40.721240 -73.992230
40.721640 -73.993580
40.815320 -73.935750
40.846620 -73.930330
40.717540 -73.979990
40.717310 -73.979290
40.712070 -73.996940
40.753880 -74.006990
40.740080 -74.009290
40.748190 -73.968580
40.710200 -73.996480
40.866500 -73.932660
40.707240 -74.015130
40.860830 -73.928880
40.740240 -74.009190
40.707050 -74.016110
40.709200 -73.996230
40.842900 -73.938410
40.647350 -74.499520
40.729170 -74.001190
40.806820 -73.961030
40.718410 -73.996770
40.705090 -74.016450
40.774360 -73.961570
40.810850 -73.939010
40.808470 -73.964960
40.808850 -73.965870
40.760080 -74.002520
40.812200 -73.942240
40.762620 -74.000560
40.764300 -73.998720
40.800660 -73.946460
40.772900 -73.985790
40.802020 -73.949680
40.773630 -73.987500
40.767420 -73.996420
40.786940 -73.983140
40.791520 -73.963610
40.813380 -73.945100
40.747510 -73.968760
40.805020 -73.956790
40.805540 -73.967890
40.789200 -73.954810
40.787790 -73.951460
40.869730 -73.918250
40.805590 -73.958200
40.798120 -73.948310
40.857160 -73.928230
40.799450 -73.951520
40.856850 -73.931470
40.794360 -73.955970
40.848940 -73.943010
40.702880 -74.008020
40.800650 -73.954390
40.767980 -73.995980
40.767910 -73.995800
40.717830 -74.012870
40.774640 -73.974210
40.723940 -73.987960
40.802460 -73.958670
40.753150 -73.964440
40.723000 -73.985750
40.756600 -73.976500
40.804250 -73.962910
40.806120 -73.967370
40.721020 -73.981080
40.802950 -73.952630
40.720030 -73.978690
40.791450 -73.962060
40.780350 -73.944000
40.742810 -73.988640
40.748970 -74.003230
40.794260 -73.959450
40.867950 -73.926980
40.868480 -73.918560
40.868100 -73.926790
40.868260 -73.926570
40.845530 -73.930600
40.868460 -73.926230
40.868530 -73.926060
40.868580 -73.925890
40.868620 -73.925710
40.747950 -73.968480
40.868750 -73.925130
40.863040 -73.920560
40.868810 -73.924860
40.868870 -73.924550
40.767460 -73.976320
40.738980 -74.009910
40.868940 -73.924260
40.713860 -74.003140
40.761140 -73.979510
40.868980 -73.924000
40.737140 -73.988570
40.803220 -73.944590
40.868970 -73.923800
40.735790 -73.985360
40.868680 -73.923430
40.729380 -74.005340
40.734840 -73.983120
40.747180 -73.975950
40.764890 -73.972550
40.767760 -73.976120
40.764970 -73.972670
40.780910 -73.944010
40.769900 -73.974090
40.765040 -73.972810
40.765090 -73.972950
40.784530 -73.973590
40.765120 -73.973090
40.851190 -73.926060
40.785730 -73.976430
40.714230 -73.994800
40.799880 -73.938600
40.711790 -73.999700
40.787710 -73.981130
40.802460 -73.930700
40.837190 -73.936690
40.837880 -73.938350
40.748910 -74.007030
40.841030 -73.944710
40.795630 -73.940480
40.794940 -73.938900
40.794580 -73.938070
40.815150 -73.957820
40.832690 -73.949710
40.724580 -73.987500
40.801230 -73.929560
40.723640 -73.985280
40.801490 -73.929890
40.647350 -74.499520
40.722670 -73.982960
40.647350 -74.499520
40.877080 -73.906120
40.721670 -73.980600
40.790780 -73.960830
40.759610 -73.961960
40.720670 -73.978230
40.802250 -73.933450
40.705100 -74.016830
40.753480 -73.980880
40.722790 -73.993030
40.849920 -73.926780
40.756030 -73.986940
40.797490 -73.920900
40.748920 -73.969870
40.758420 -73.992620
40.806630 -73.934850
40.806630 -73.934690
40.822170 -73.952100
40.715030 -74.012070
40.762060 -74.001310
40.771800 -73.978030
40.772380 -73.988390
40.860780 -73.921450
40.776720 -73.979290
40.758510 -73.998180
40.740490 -74.010090
40.777970 -73.982200
40.719440 -74.006130
40.794360 -73.931060
40.718850 -74.004840
40.709490 -74.013880
40.716540 -73.999930
40.735190 -73.974900
40.710080 -74.016370
40.708910 -74.000770
40.746830 -73.975740
40.710360 -74.017540
40.790440 -73.960260
40.724560 -73.974510
40.741410 -74.008680
40.813100 -73.963800
40.769270 -73.969360
40.768590 -73.967760
40.788090 -73.982920
40.846870 -73.930580
40.846680 -73.930580
40.846530 -73.930660
40.846400 -73.930830
40.846330 -73.931190
40.767230 -73.964530
40.846350 -73.931380
40.738740 -74.009580
40.766550 -73.962930
40.752520 -73.966830
40.765610 -73.960690
40.754210 -73.976220
40.783710 -73.967820
40.764610 -73.958320
40.848300 -73.927840
40.760290 -73.951670
40.711810 -74.004200
40.755260 -73.994930
40.717990 -74.009490
40.718690 -74.009330
40.828440 -73.935130
40.710550 -73.994130
40.710730 -73.993010
40.710880 -73.992190
40.741520 -74.009060
40.710910 -73.992020
40.847720 -73.928210
40.744010 -74.003060
40.704850 -74.004920
40.711240 -73.989730
40.773290 -73.968970
40.711260 -73.989550
40.711300 -73.989060
40.711380 -73.988310
40.711530 -73.986740
40.711710 -73.984850
40.782880 -73.969130
40.707500 -74.011250
40.712260 -73.980000
40.712320 -73.979120
40.705180 -74.007390
40.712410 -73.978020
40.712310 -73.977720
40.747990 -73.968480
40.876290 -73.907310
40.738280 -74.010090
40.846080 -73.931650
40.737330 -73.985380
40.737910 -73.984960
40.713760 -73.979290
40.785030 -73.984190
40.794010 -73.931720
40.705140 -74.009980
40.704760 -74.010320
40.715540 -74.015590
40.704640 -74.010510
40.704540 -74.010690
40.706080 -74.002990
40.704450 -74.010870
40.704380 -74.011070
40.750210 -73.998520
40.720760 -73.990620
40.704310 -74.011300
40.711010 -74.010800
40.704260 -74.011490
40.865230 -73.927790
40.717830 -73.985720
40.712060 -74.010150
40.866050 -73.930010
40.714610 -73.997020
40.715010 -73.996720
40.712720 -74.009660
40.799570 -73.974790
40.834710 -73.947460
40.717270 -73.995420
40.805330 -73.934620
40.708330 -73.998900
40.778570 -73.987570
40.715550 -73.996560
40.845800 -73.931500
40.721780 -73.995850
40.778650 -73.987760
40.714030 -74.003440
40.770700 -73.970910
40.760930 -73.967030
40.749550 -73.979400
40.720970 -73.993860
40.721910 -74.006750
40.722380 -73.993320
40.801230 -73.930730
40.724140 -73.992660
40.724910 -73.992390
40.828270 -73.935170
40.747880 -73.975420
40.801060 -73.930040
40.725670 -73.992140
40.754530 -73.962480
40.801040 -73.929800
40.746940 -73.973190
40.773100 -73.968900
40.746290 -73.971670
40.789200 -73.956750
40.746240 -73.971540
40.707960 -74.017770
40.797100 -73.949470
40.751660 -73.959050
40.748430 -73.984560
40.849690 -73.940830
40.784450 -73.942080
40.784210 -73.942700
40.784530 -73.942100
40.784170 -73.942690
40.834230 -73.948820
40.730710 -73.974090
40.750990 -73.990610
40.797130 -73.949400
40.766740 -73.996940
40.766650 -73.996720
40.765310 -73.991330
40.775660 -73.967300
40.765550 -73.991910
40.753390 -73.996290
40.785940 -73.984430
40.776110 -73.967360
40.647350 -74.499520
40.785660 -73.984710
40.754840 -73.984110
40.736000 -73.974690
40.735030 -73.975010
40.735950 -73.974760
40.730810 -73.974040
40.785600 -73.984300
40.730740 -73.974070
40.742280 -73.972520
40.730780 -73.974050
40.796630 -73.976230
40.745920 -73.986390
40.709370 -73.993480
40.750850 -73.998130
40.777900 -73.966690
40.797120 -73.949080
40.778270 -73.988530
40.715680 -74.015490
40.731520 -73.973940
40.754420 -74.006640
40.797080 -73.949010
40.741860 -74.008790
40.743900 -73.971770
40.741120 -73.972790
40.850860 -73.930010
40.851100 -73.930600
40.829210 -73.935090
40.842690 -73.931020
40.647350 -74.499520
40.797030 -73.948950
40.783240 -73.974540
40.781600 -73.986890
40.773790 -73.989770
40.711780 -74.002950
40.647350 -74.499520
40.752200 -73.977660
40.738020 -74.009840
40.785790 -73.984220
40.774370 -73.963540
40.739290 -74.009850
40.739560 -74.009740
40.739910 -74.009550
40.740330 -74.009280
40.740650 -74.009130
40.740970 -74.009020
40.741540 -74.008870
40.796980 -73.948910
40.711870 -73.998670
40.708920 -74.005260
40.712300 -73.994360
40.712450 -73.992560
40.756480 -73.997750
40.712460 -73.992300
40.708550 -73.998680
40.712640 -73.989970
40.777910 -73.987840
40.708410 -73.998990
40.712760 -73.988480
40.712900 -73.986920
40.713070 -73.985050
40.725200 -74.006950
40.713410 -73.982040
40.777990 -73.988060
40.741250 -74.009120
40.740680 -74.009280
40.740450 -74.009390
40.739840 -74.009760
40.715570 -74.000580
40.739480 -74.009950
40.738810 -74.010110
40.714290 -73.993940
40.718980 -73.998390
40.719510 -73.998170
40.769710 -73.971740
40.765280 -73.997750
40.770950 -73.970710
40.771860 -73.969260
40.772370 -73.968980
40.813450 -73.939320
40.773640 -73.969170
40.774290 -73.969060
40.775060 -73.968160
40.782210 -73.959920
40.775420 -73.967410
40.709880 -73.990050
40.780790 -73.956560
40.776300 -73.967350
40.776730 -73.967170
40.777090 -73.967030
40.777550 -73.948880
40.778580 -73.966190
40.847110 -73.944450
40.775810 -73.944760
40.707670 -74.017640
40.784860 -73.984810
40.730640 -73.976040
40.731180 -73.975640
40.739410 -73.976690
40.731010 -73.974020
40.778090 -73.988590
40.738660 -73.975220
40.785780 -73.984730
40.780550 -73.985670
40.875690 -73.911450
40.876270 -73.909440
40.775390 -73.989690
40.713950 -74.014320
40.777850 -73.987720
40.841470 -73.931920
40.778180 -73.988550
40.847180 -73.930430
40.778900 -73.960230
40.775300 -73.989490
40.852330 -73.935710
40.797310 -73.966240
40.796690 -73.948940
40.748920 -74.007950
40.801290 -73.930860
40.801980 -73.930880
40.794000 -73.960090
40.763870 -73.999050
40.741410 -74.008590
40.736940 -73.974350
40.841150 -73.932130
40.715430 -73.985010
40.712320 -74.003560
40.847460 -73.930140
40.720960 -73.982160
40.741540 -73.989590
40.865750 -73.929340
40.743080 -74.008740
40.744090 -73.995640
40.800560 -73.929690
40.806950 -73.967400
40.741300 -73.989000
40.801040 -73.929270
40.801360 -73.929730
40.801620 -73.930050
40.801830 -73.930500
40.840300 -73.932640
40.847520 -73.929870
40.754340 -73.976970
40.746490 -74.001320
40.781530 -73.958310
40.747690 -74.004160
40.749420 -74.008030
40.797980 -73.961960
40.798560 -73.963360
40.799750 -73.966190
40.801580 -73.970540
40.865360 -73.924380
40.866060 -73.922490
40.867270 -73.919210
40.867580 -73.918410
40.812740 -73.937630
40.859510 -73.932170
40.811690 -73.934880
40.742610 -74.008830
40.811150 -73.934900
40.807560 -73.934600
40.807490 -73.934900
40.807070 -73.935210
40.717600 -73.985840
40.806940 -73.935200
40.806820 -73.935170
40.806750 -73.935110
40.854970 -73.927780
40.742140 -74.008200
40.756620 -73.995870
40.756520 -73.995840
40.756380 -73.995840
40.756260 -73.995860
40.732250 -73.996350
40.732940 -73.997980
40.708310 -74.000120
40.755630 -74.001670
40.722920 -73.988570
40.717340 -73.991170
40.757060 -73.996660
40.716170 -73.991790
40.715040 -73.992380
40.714650 -73.992570
40.714380 -73.992580
40.711170 -73.979110
40.714670 -73.992850
40.766850 -73.944360
40.714370 -73.992810
40.809360 -73.935090
40.849300 -73.931910
40.730000 -73.987350
40.714350 -73.993040
40.715120 -73.992630
40.798220 -73.954310
40.716230 -73.992010
40.739080 -73.991370
40.736930 -73.974830
40.717410 -73.991420
40.745230 -74.005960
40.716020 -73.991300
40.845640 -73.930410
40.778990 -73.965680
40.779370 -73.965270
40.827630 -73.935750
40.796670 -73.949560
40.842430 -73.935020
40.713320 -74.011000
40.828980 -73.938950
40.775470 -73.980200
40.830880 -73.943460
40.741850 -73.988990
40.707400 -74.014690
40.820990 -73.958780
40.715350 -73.997710
40.716200 -74.000130
40.725770 -74.000890
40.776090 -73.979750
40.787790 -73.971220
40.754150 -73.980390
40.788980 -73.974050
40.760300 -73.994980
40.710600 -73.983520
40.710700 -73.983530
40.791240 -73.979390
40.710870 -73.982340
40.725760 -74.007570
40.722850 -74.010450
40.784040 -73.956480
40.722970 -74.011520
40.817000 -73.959490
40.817510 -73.960680
40.865670 -73.928290
40.829520 -73.951600
40.812060 -73.934660
40.800450 -73.932150
40.800490 -73.932040
40.702790 -74.012300
40.800520 -73.931900
40.765040 -73.947610
40.703170 -74.013010
40.800540 -73.931600
40.702370 -74.013640
40.761420 -73.962380
40.741070 -74.009150
40.836610 -73.949200
40.806330 -73.934840
40.750840 -73.994430
40.785300 -73.955560
40.800020 -73.930440
40.733790 -74.010100
40.799940 -73.930350
40.713290 -73.998300
40.799860 -73.930280
40.745790 -73.974300
40.798030 -73.960030
40.779360 -73.977370
40.798450 -73.929720
40.798240 -73.929650
40.799230 -73.962870
40.797800 -73.929560
40.800430 -73.965700
40.797550 -73.929540
40.724380 -73.974300
40.801380 -73.967990
40.724380 -73.974360
40.797250 -73.929550
40.797190 -73.929560
40.801620 -73.968580
40.753940 -74.007190
40.797140 -73.929590
40.797100 -73.929640
40.742700 -73.984520
40.798500 -73.954500
40.797070 -73.929690
40.719020 -73.975410
40.797040 -73.929760
40.740120 -73.973240
40.851130 -73.942820
40.800630 -73.931780
40.800710 -73.931960
40.871470 -73.918560
40.710360 -74.011230
40.783820 -73.977820
40.724470 -73.974500
40.784550 -73.979590
40.785020 -73.980670
40.785590 -73.982000
40.740220 -73.973190
40.812050 -73.934810
40.858740 -73.930120
40.859010 -73.927620
40.756870 -73.995460
40.855630 -73.936690
40.738530 -73.986420
40.738210 -73.985670
40.859940 -73.926780
40.861440 -73.925020
40.718660 -73.974910
40.783970 -73.970320
40.714090 -73.997700
40.785170 -73.973130
40.849920 -73.931470
40.786360 -73.975970
40.769250 -73.995110
40.714310 -73.997880
40.787070 -73.977690
40.787560 -73.978820
40.724620 -73.974160
40.724640 -73.974460
40.851020 -73.934090
40.714410 -73.998120
40.749010 -73.980080
40.788500 -73.981060
40.714590 -73.998120
40.761040 -73.964000
40.724660 -73.974410
40.724670 -73.974240
40.766340 -73.991900
40.872110 -73.916270
40.725320 -73.976210
40.724680 -73.974290
40.724680 -73.974320
40.704670 -74.008120
40.725920 -73.975780
40.813450 -73.965350
40.726540 -73.975330
40.773010 -73.993220
40.873020 -73.918450
40.817040 -73.955790
40.711480 -73.992390
40.711700 -73.992950
40.818760 -73.959780
40.755880 -73.994480
40.769170 -73.990870
40.708580 -74.000360
40.708450 -74.000220
40.811560 -73.942720
40.841670 -73.937490
40.812750 -73.945560
40.813830 -73.959810
40.779830 -73.944070
40.815840 -73.952860
40.816350 -73.954070
40.814190 -73.960680
40.714640 -73.997150
40.715620 -73.996520
40.715050 -73.996850
40.715710 -73.996480
40.833270 -73.939150
40.758710 -73.997360
40.834110 -73.941100
40.876300 -73.924520
40.732840 -73.995910
40.734140 -73.999010
40.817790 -73.935950
40.734130 -73.999180
40.818510 -73.937640
40.758030 -73.960180
40.807040 -73.933900
40.807390 -73.934240
40.807520 -73.934410
40.819720 -73.940470
40.734790 -73.999200
40.821460 -73.944600
40.822730 -73.947620
40.823310 -73.948990
40.775040 -73.965140
40.825320 -73.953750
40.755740 -74.001930
40.769830 -73.994380
40.776830 -73.989160
40.777470 -73.988830
40.771330 -73.993910
40.778880 -73.988300
40.779520 -73.987970
40.773630 -73.961790
40.799370 -73.955350
40.856780 -73.933680
40.770400 -73.954100
40.761760 -73.949800
40.768760 -73.979900
40.838850 -73.933330
40.851310 -73.939940
40.704210 -74.008780
40.792560 -73.941020
40.703810 -74.008320
40.766220 -73.991620
40.713170 -73.977390
40.710700 -73.992100
40.703310 -74.007760
40.713180 -73.998300
40.772750 -73.993260
40.704070 -74.008980
40.761860 -73.949750
40.703690 -74.008540
40.703180 -74.007980
40.769150 -73.979940
40.768300 -73.979500
40.769270 -73.981020
40.714110 -73.989510
40.769790 -73.982250
40.770470 -73.983850
40.733080 -73.975390
40.858990 -73.922860
40.740910 -74.009200
40.771660 -73.986690
40.732960 -73.975440
40.773770 -73.972700
40.796130 -73.975310
40.738140 -74.008150
40.769280 -73.991130
40.732850 -73.975520
40.781640 -73.944420
40.732750 -73.975620
40.788420 -73.970760
40.732650 -73.975750
40.789610 -73.973600
40.732570 -73.975870
40.732510 -73.976000
40.732450 -73.976150
40.768410 -73.981550
40.790250 -73.975130
40.812070 -73.936020
40.705150 -74.007360
40.717100 -73.984350
40.769740 -73.984160
40.768630 -73.982180
40.709600 -74.009560
40.790810 -73.976440
40.768490 -73.981930
40.768460 -73.981690
40.709370 -74.009220
40.757770 -73.992970
40.709290 -74.009120
40.711520 -74.015820
40.732460 -73.976840
40.710960 -74.014480
40.706140 -74.006020
40.806980 -73.953500
40.767800 -73.982370
40.732490 -73.976980
40.757650 -73.992820
40.710130 -74.012640
40.767740 -73.981470
40.709680 -74.011670
40.732610 -73.977310
40.647350 -74.499520
40.732670 -73.977440
40.768540 -73.981950
40.647350 -74.499520
40.768450 -73.982150
40.647350 -74.499520
40.799270 -73.955350
40.708610 -74.009370
40.769920 -73.984450
40.707720 -74.008260
40.732750 -73.977590
40.707210 -74.007450
40.768500 -73.981520
40.733200 -73.977940
40.768390 -73.982270
40.733320 -73.977960
40.775860 -73.989900
40.751780 -74.008010
40.733470 -73.977960
40.733570 -73.977950
40.733700 -73.977920
40.851040 -73.929700
40.768460 -73.982100
40.757720 -73.992900
40.784880 -73.984160
40.767950 -73.982460
40.733930 -73.977800
40.734040 -73.977720
40.767810 -73.981400
40.801910 -73.943430
40.708790 -74.000860
40.801780 -73.933650
40.708340 -74.000480
40.801830 -73.933710
40.768470 -73.982070
40.768570 -73.981970
40.768430 -73.981580
40.707900 -74.000120
40.647350 -74.499520
40.801960 -73.933790
40.720340 -73.994110
40.738510 -74.009890
40.777670 -73.963230
40.777000 -73.961620
40.852890 -73.937590
40.776260 -73.959870
40.793600 -73.949500
40.802080 -73.933800
40.794780 -73.964300
40.775630 -73.958400
40.706490 -74.002510
40.802140 -73.933730
40.839120 -73.946330
40.722010 -74.006700
40.774010 -73.954550
40.856070 -73.930400
40.802190 -73.933660
40.773010 -73.952180
40.741560 -73.981810
40.771070 -73.947580
40.802230 -73.933560
40.712350 -73.984950
40.715490 -74.003040
40.863130 -73.932080
40.711220 -73.984780
40.710680 -73.984700
40.802260 -73.933340
40.719170 -73.990550
40.802260 -73.933250
40.863060 -73.932140
40.768900 -73.979950
40.710110 -74.001170
40.744680 -73.987290
40.802240 -73.933150
40.712850 -74.011780
40.748480 -73.996300
40.748550 -73.996450
40.713900 -73.983990
40.796120 -73.976130
40.748640 -73.996580
40.796190 -73.975960
40.748740 -73.996690
40.796220 -73.975760
40.862960 -73.932310
40.796200 -73.975540
40.748850 -73.996780
40.863930 -73.931950
40.801100 -73.930300
40.719070 -73.989730
40.862930 -73.932420
40.748960 -73.996850
40.753390 -73.984670
40.863120 -73.919740
40.769530 -73.972160
40.749050 -73.996910
40.725490 -74.007100
40.749100 -73.996960
40.864380 -73.919060
40.863440 -73.919610
40.863360 -73.919740
40.800550 -73.930040
40.864340 -73.918930
40.863670 -73.919590
40.862920 -73.932620
40.863770 -73.919360
40.747230 -73.993350
40.863800 -73.919460
40.800510 -73.930820
40.749260 -73.997180
40.721700 -73.992000
40.749330 -73.997330
40.749400 -73.997490
40.757620 -73.998540
40.749440 -73.997640
40.848750 -73.943110
40.728440 -73.981790
40.848750 -73.943050
40.756690 -73.995170
40.876720 -73.909490
40.727460 -73.979460
40.749470 -73.997790
40.875310 -73.912670
40.771090 -73.940510
40.726480 -73.977130
40.805440 -73.958260
40.756050 -73.995010
40.749490 -73.997940
40.876650 -73.909650
40.876100 -73.912910
40.753830 -74.007240
40.733300 -73.993320
40.813370 -73.948830
40.732570 -74.010420
40.732570 -74.010210
40.795540 -73.955310
40.859470 -73.933850
40.876040 -73.911510
40.749490 -73.998190
40.789320 -73.937520
40.789550 -73.937410
40.876620 -73.909570
40.722240 -73.986290
40.743840 -73.971620
40.876550 -73.910810
40.749490 -73.998510
40.749520 -73.998680
40.708400 -74.000100
40.749560 -73.998830
40.709470 -74.001670
40.749610 -73.998990
40.749630 -73.999030
40.744160 -73.971450
40.750820 -74.001880
40.847410 -73.933300
40.875200 -73.912590
40.875840 -73.911550
40.780240 -73.987960
40.877860 -73.910100
40.761560 -74.001740
40.875650 -73.911010
40.753080 -74.007290
40.876820 -73.909450
40.875980 -73.913490
40.780570 -73.987690
40.755730 -73.995320
40.876270 -73.912910
40.865060 -73.932990
40.877870 -73.911020
40.723270 -73.982520
40.876550 -73.910690
40.805740 -73.942750
40.747670 -73.968470
40.805060 -73.941160
40.804320 -73.939390
40.725680 -73.980760
40.715210 -74.013370
40.754940 -73.995310
40.875990 -73.910470
40.712880 -74.011790
40.876890 -73.909390
40.817480 -73.934110
40.876950 -73.908670
40.874800 -73.911440
40.763470 -73.969200
40.876010 -73.913510
40.732300 -74.010450
40.760230 -73.961520
40.876100 -73.911450
40.875930 -73.912880
40.797830 -73.922000
40.711910 -74.003890
40.875910 -73.910690
40.754960 -73.995270
40.785400 -73.983680
40.715310 -73.976140
40.799510 -73.957950
40.845150 -73.931650
40.785380 -73.983400
40.876550 -73.910740
40.785400 -73.983240
40.875460 -73.912730
40.877930 -73.910540
40.865890 -73.929740
40.877910 -73.910300
40.785540 -73.983100
40.803690 -73.937910
40.812440 -73.934460
40.803020 -73.936310
40.785770 -73.983010
40.801890 -73.933860
40.786440 -73.983020
40.786770 -73.982980
40.787150 -73.982910
40.787610 -73.982800
40.788230 -73.982650
40.735200 -73.991690
40.736520 -73.990730
40.875900 -73.911550
40.773140 -73.966530
40.773650 -73.977820
40.798030 -73.929210
40.724690 -73.978420
40.798390 -73.929250
40.770420 -73.960110
40.876560 -73.910630
40.769470 -73.957870
40.876040 -73.913590
40.810160 -73.937410
40.876870 -73.908580
40.766830 -73.950630
40.799240 -73.929320
40.877650 -73.909660
40.799520 -73.929380
40.876580 -73.910570
40.877690 -73.911450
40.776500 -73.988390
40.876550 -73.912820
40.771620 -73.977290
40.778510 -73.987420
40.779160 -73.987090
40.800650 -73.931030
40.721750 -74.006720
40.818900 -73.952210
40.868960 -73.920410
40.867770 -73.923730
40.876530 -73.910880
40.801340 -73.930880
40.875910 -73.913580
40.711410 -74.004270
40.876160 -73.909650
40.729420 -73.971900
40.802480 -73.930530
40.801340 -73.930340
40.737940 -73.986830
40.839290 -73.939230
40.840480 -73.938360
40.710290 -73.988110
40.780650 -73.976420
40.842910 -73.936590
40.781830 -73.979270
40.779230 -73.969260
40.798590 -73.929620
40.729490 -74.006970
40.783770 -73.983870
40.846140 -73.934230
40.766620 -73.944530
40.798240 -73.929530
40.714280 -73.994150
40.796830 -73.929340
40.850500 -73.931040
40.875110 -73.912440
40.876780 -73.908530
40.876120 -73.909760
40.754790 -73.962440
40.715690 -73.978080
40.876000 -73.913650
40.876500 -73.910940
40.875970 -73.911540
40.716490 -74.013180
40.875770 -73.911530
40.755190 -73.971210
40.737180 -73.974660
40.737810 -73.973910
40.754250 -73.968970
40.732280 -74.010240
40.753240 -73.966610
40.752670 -73.965280
40.752490 -73.964880
40.736690 -73.974490
40.779760 -73.964950
40.805760 -73.944780
40.806460 -73.946430
40.830740 -73.935310
40.807660 -73.949270
40.759620 -73.958150
40.809460 -73.953540
40.741380 -73.979460
40.740750 -73.979910
40.712270 -74.003530
40.811250 -73.957790
40.785290 -73.984080
40.756560 -73.999880
40.785000 -73.984200
40.876960 -73.910070
40.863350 -73.933660
40.784800 -73.984020
40.864170 -73.932540
40.789670 -73.950080
40.789050 -73.948600
40.853100 -73.929140
40.784790 -73.983860
40.854320 -73.928250
40.704680 -74.005380
40.757720 -73.953570
40.877750 -73.909820
40.791080 -73.953430
40.790410 -73.951830
40.836030 -73.944660
40.784740 -73.983750
40.787440 -73.944770
40.739380 -74.008050
40.784940 -73.982640
40.800780 -73.930020
40.833880 -73.945310
40.808950 -73.940400
40.791390 -73.956060
40.808280 -73.938790
40.858770 -73.936820
40.877850 -73.908470
40.816180 -73.957460
40.845280 -73.932940
40.730710 -73.978000
40.796940 -73.976050
40.729440 -73.978030
40.712140 -74.005630
40.730420 -73.980350
40.836330 -73.944590
40.706950 -74.008990
40.730980 -73.979690
40.751530 -73.964980
40.721270 -73.977780
40.785270 -73.983540
40.764240 -73.947590
40.874380 -73.909830
40.817950 -73.960370
40.723680 -73.976020
40.818120 -73.960240
40.705620 -74.006760
40.785190 -73.983500
40.784990 -73.983500
40.859130 -73.931090
40.765330 -73.946610
40.799350 -73.956600
40.821110 -73.957460
40.724430 -73.974460
40.770080 -73.994780
40.821300 -73.957910
40.769580 -73.972850
40.769790 -73.973340
40.785320 -73.969320
40.771690 -73.978670
40.860470 -73.921230
40.763440 -73.953610
40.752680 -74.000520
40.733340 -73.983170
40.849510 -73.939920
40.734670 -73.994580
40.754930 -73.962430
40.751180 -73.959610
40.752160 -73.959640
40.737540 -74.003860
40.734010 -73.984770
40.745440 -74.008290
40.752900 -73.959400
40.837780 -73.944010
40.753100 -73.959190
40.754010 -74.006920
40.753410 -73.958980
40.810490 -73.962010
40.729070 -73.973050
40.753610 -73.958770
40.784950 -73.983530
40.753460 -73.958560
40.819490 -73.932460
40.838460 -73.943750
40.736920 -74.005840
40.872840 -73.911900
40.754700 -73.997550
40.812430 -73.960570
40.785590 -73.983090
40.819470 -73.933370
40.784910 -73.983580
40.785320 -73.982940
40.761660 -73.986560
40.867350 -73.927840
40.784850 -73.984130
40.785790 -73.983090
40.840730 -73.932410
40.710930 -73.980550
40.799560 -73.925760
40.784790 -73.983940
40.772200 -73.982080
40.786260 -73.983020
40.816290 -73.957770
40.785380 -73.983340
40.785500 -73.983130
40.784790 -73.983900
40.721410 -74.006520
40.761350 -74.005600
40.872510 -73.912240
40.781080 -73.964040
40.818150 -73.956430
40.758270 -73.997600
40.785420 -73.983210
40.784950 -73.983250
40.816280 -73.961900
40.785910 -73.983150
40.721220 -73.983000
40.868230 -73.931120
40.869570 -73.918350
40.876040 -73.913550
40.785930 -73.983190
40.737630 -74.010010
40.785930 -73.984580
40.735400 -74.010170
40.785880 -73.983130
40.736960 -73.984500
40.785950 -73.983230
40.754560 -73.997840
40.764050 -73.992240
40.736020 -73.982260
40.734980 -73.979900
40.786800 -73.938810
40.785970 -73.983270
40.781280 -73.963750
40.721960 -74.008230
40.784790 -73.983980
40.766870 -73.944620
40.785070 -73.983480
40.732720 -73.974500
40.785130 -73.983480
40.785440 -73.983180
40.785210 -73.982900
40.785390 -73.983280
40.706270 -74.015180
40.738310 -73.987720
40.784830 -73.984090
40.759980 -74.002590
40.785030 -73.983480
40.719570 -73.998070
40.785470 -73.983150
40.795230 -73.977560
40.706070 -74.014380
40.785310 -73.983590
40.827150 -73.946190
40.737990 -73.975230
40.805620 -73.934400
40.785980 -73.983460
40.779160 -73.965480
40.769860 -73.974250
40.785980 -73.983370
40.785760 -73.983080
40.742400 -73.989160
40.737810 -73.974850
40.718670 -73.975020
40.737780 -73.974700
40.823560 -73.937670
40.737780 -73.974560
40.742260 -73.989030
40.797130 -73.963930
40.737810 -73.974440
40.874060 -73.910370
40.738030 -73.974180
40.729880 -73.991410
40.794570 -73.978320
40.729790 -73.990740
40.738180 -73.974130
40.852620 -73.942090
40.800440 -73.930470
40.729890 -73.990720
40.738500 -74.010110
40.739030 -73.973560
40.844680 -73.940790
40.738820 -74.009680
40.750300 -73.975420
40.706900 -74.015810
40.749690 -73.975880
40.769100 -73.988560
40.738880 -74.009740
40.743320 -73.984070
40.738880 -74.009830
40.718990 -73.975070
40.737910 -73.992220
40.864130 -73.932470
40.740470 -73.998280
40.768020 -73.970280
40.742860 -74.003960
40.766600 -73.966920
40.745680 -73.972120
40.744060 -74.006810
40.763360 -73.959230
40.744690 -74.008240
40.753290 -74.000080
40.794090 -73.978860
40.753520 -73.999920
40.736960 -74.005770
40.736940 -74.005800
40.713320 -74.013890
40.737020 -74.005690
40.732280 -73.980060
40.770510 -73.968440
40.769100 -73.965090
40.765860 -73.957410
40.772660 -73.977180
40.752350 -73.997050
40.751420 -73.997720
40.835280 -73.943910
40.751450 -73.997600
40.810060 -73.957200
40.865580 -73.918120
40.754000 -73.998280
40.732650 -73.981600
40.729730 -74.010480
40.769310 -73.941630
40.814230 -73.962020
40.769670 -73.941260
40.814900 -73.934550
40.835210 -73.935210
40.769970 -73.941100
40.726870 -74.003120
40.726910 -74.003200
40.703120 -74.012880
40.726940 -74.003270
40.783900 -73.944240
40.726950 -74.003370
40.800540 -73.931750
40.712060 -74.003610
40.816300 -73.961590
40.716600 -74.011620
40.755250 -73.998660
40.727550 -74.009620
40.756770 -74.004830
40.813580 -73.934950
40.770380 -73.948110
40.839480 -73.936040
40.730380 -73.990080
40.758980 -73.995940
40.809820 -73.953270
40.791670 -73.964700
40.770220 -73.941290
40.762180 -73.993600
40.778870 -73.972120
40.770800 -73.940270
40.770410 -73.940440
40.773170 -73.986440
40.775580 -73.944950
40.806120 -73.959350
40.800060 -73.930510
40.704290 -74.016590
40.778940 -73.962300
40.863100 -73.919930
40.746020 -73.974570
40.778270 -73.960700
40.777530 -73.958940
40.776910 -73.957470
40.776230 -73.955860
40.746060 -73.974920
40.775290 -73.953620
40.840780 -73.935420
40.840800 -73.935430
40.774290 -73.951260
40.791500 -73.962650
40.820820 -73.934480
40.772350 -73.946650
40.705270 -74.015250
40.736690 -74.005790
40.761840 -74.001530
40.716500 -73.975690
40.717330 -73.975080
40.837410 -73.948730
40.868250 -73.916130
40.718840 -73.974740
40.746460 -73.981920
40.719060 -73.974950
40.747140 -73.981440
40.747780 -73.980970
40.784650 -73.983920
40.784480 -73.984210
40.749650 -73.979620
40.750270 -73.979180
40.750310 -73.978980
40.750610 -73.978640
40.784110 -73.984740
40.750820 -73.978570
40.751510 -73.978280
40.751410 -73.978030
40.751310 -73.978200
40.752170 -73.977810
40.752070 -73.977560
40.869090 -73.931510
40.773600 -73.981570
40.808510 -73.934730
40.807840 -73.934390
40.807540 -73.934210
40.755270 -73.961530
40.807160 -73.933930
40.774790 -73.984390
40.831800 -73.935400
40.845090 -73.931860
40.797090 -73.975690
40.844790 -73.932410
40.844180 -73.932950
40.763700 -73.999170
40.844120 -73.933410
40.725200 -73.987050
40.801970 -73.945500
40.801290 -73.943890
40.800550 -73.942150
40.799760 -73.930220
40.799250 -73.939060
40.723970 -74.008300
40.850900 -73.938280
40.767610 -73.981870
40.798300 -73.936820
40.797310 -73.934450
40.691420 -74.011840
40.734420 -73.980300
40.796350 -73.932190
40.798640 -73.961470
40.844210 -73.945080
40.738170 -73.977600
40.795800 -73.930890
40.724970 -74.006950
40.713090 -73.993540
40.782000 -73.951650
40.724180 -74.004270
40.725250 -74.003370
40.764230 -73.998780
40.726490 -74.002350
40.745060 -73.972570
40.727660 -74.001390
40.730050 -73.999360
40.647350 -74.499520
40.828990 -73.951990
40.730660 -73.998840
40.798020 -73.929600
40.748840 -73.969940
40.749460 -73.969300
40.751990 -73.967670
40.753340 -73.966530
40.801710 -73.930320
40.723000 -74.005220
40.793650 -73.947530
40.709910 -74.006070
40.802730 -73.932750
40.714160 -73.984920
40.773090 -73.964470
40.772350 -73.962720
40.802860 -73.932900
40.771730 -73.961250
40.784600 -73.967160
40.771050 -73.959650
40.848310 -73.941890
40.770100 -73.957410
40.742170 -73.988970
40.742070 -73.988940
40.769100 -73.955040
40.791050 -73.949420
40.834490 -73.949700
40.767120 -73.950380
40.803350 -73.932910
40.724870 -73.975160
40.727000 -73.971970
40.810170 -73.957310
40.756380 -73.964320
40.719190 -73.999840
40.719550 -74.000620
40.754820 -73.962260
40.720340 -74.002220
40.754700 -73.975870
40.802650 -73.933280
40.802640 -73.933310
40.817080 -73.947930
40.798480 -73.923380
40.797340 -73.929540
40.739730 -74.008000
40.739560 -74.008020
40.818370 -73.946980
40.819620 -73.946060
40.820870 -73.945150
40.756580 -73.974500
40.821550 -73.944840
40.757210 -73.974050
40.809550 -73.935450
40.704510 -74.014220
40.826820 -73.941530
40.875950 -73.913490
40.809530 -73.935310
40.755950 -73.974960
40.829300 -73.939720
40.809460 -73.935170
40.829390 -73.939680
40.829480 -73.939660
40.763570 -73.969420
40.703410 -74.011810
40.829580 -73.939660
40.850070 -73.935780
40.705300 -74.006210
40.855380 -73.937700
40.829670 -73.939670
40.855430 -73.937750
40.829770 -73.939700
40.785010 -73.982970
40.857100 -73.935600
40.829860 -73.939750
40.844840 -73.935180
40.728500 -74.026710
40.829900 -73.939780
40.829990 -73.939880
40.758460 -73.973140
40.830050 -73.939970
40.759710 -73.972230
40.761480 -73.960600
40.830130 -73.940110
40.758980 -73.962430
40.837040 -73.948270
40.830190 -73.940230
40.725070 -74.010070
40.830450 -73.940340
40.764190 -73.968970
40.831330 -73.940370
40.772330 -73.952720
40.718930 -74.012610
40.713250 -73.977580
40.712440 -73.977780
40.776190 -73.949870
40.710950 -73.979760
40.762320 -73.970320
40.831590 -73.940340
40.711000 -73.980550
40.762950 -73.969870
40.710730 -73.981630
40.780050 -73.947050
40.755380 -73.991130
40.831710 -73.940300
40.760960 -73.971310
40.831820 -73.940250
40.750170 -74.008470
40.783240 -73.944720
40.831950 -73.940170
40.832040 -73.940090
40.766070 -73.967600
40.832060 -73.940070
40.832680 -73.939670
40.785980 -73.983320
40.785840 -73.983710
40.767950 -73.966230
40.833840 -73.938490
40.834880 -73.937750
40.752480 -73.999110
40.791550 -73.938640
40.835690 -73.937380
40.752510 -73.999190
40.836460 -73.937020
40.764820 -73.968510
40.837850 -73.936380
40.795980 -73.935420
40.838230 -73.936090
40.785980 -73.984420
40.838390 -73.935930
40.782630 -73.974980
40.838700 -73.935530
40.838740 -73.935460
40.838860 -73.935340
40.838980 -73.935230
40.839120 -73.935140
40.839260 -73.935070
40.839400 -73.935030
40.818760 -73.961090
40.820320 -73.957800
40.839520 -73.935000
40.839660 -73.934990
40.769830 -73.964860
40.839820 -73.935000
40.839970 -73.935030
40.851510 -73.941460
40.840110 -73.935070
40.768580 -73.965770
40.840250 -73.935140
40.770450 -73.964410
40.758460 -73.986720
40.770050 -73.984150
40.711680 -74.005840
40.748200 -73.970390
40.840390 -73.935230
40.801620 -73.930310
40.728950 -74.031680
40.756490 -73.960720
40.766700 -73.967140
40.759980 -73.962850
40.802430 -73.940770
40.756450 -73.970310
40.841490 -73.935710
40.773730 -73.962030
40.647350 -74.499520
40.749180 -73.997070
40.773090 -73.962490
40.829970 -73.939780
40.830030 -73.939760
40.830080 -73.939720
40.830130 -73.939660
40.703710 -74.015440
40.830150 -73.939620
40.863400 -73.919810
40.861980 -73.935370
40.771820 -73.963420
40.860940 -73.935930
40.725130 -74.006940
40.725000 -73.999340
40.756610 -73.995100
40.860490 -73.936220
40.778270 -73.958720
40.859300 -73.931330
40.729180 -73.995810
40.729770 -73.995300
40.738550 -73.999680
40.856580 -73.924730
40.800410 -73.971880
40.739240 -73.999180
40.731280 -73.994030
40.739880 -73.998710
40.869550 -73.915180
40.775660 -73.960620
40.741640 -73.997430
40.742810 -73.996570
40.796180 -73.945690
40.776990 -73.959650
40.723740 -74.006110
40.746000 -73.994260
40.723780 -74.006250
40.748140 -73.968530
40.781520 -73.956360
40.803890 -73.952030
40.804520 -73.951570
40.805150 -73.951110
40.767200 -73.950550
40.723960 -74.006640
40.748120 -73.968510
40.756970 -73.996310
40.780900 -73.956810
40.808290 -73.948820
40.724050 -74.006760
40.706480 -74.016330
40.778900 -73.958260
40.842440 -73.942840
40.810870 -73.946930
40.747790 -73.968520
40.724160 -74.006860
40.811500 -73.946470
40.842650 -73.943010
40.795950 -73.953740
40.713830 -74.014060
40.812110 -73.946030
40.842730 -73.943050
40.724250 -74.006930
40.704800 -74.005410
40.842830 -73.943060
40.777630 -73.982330
40.793920 -73.956650
40.793760 -73.956990
40.842920 -73.943060
40.815300 -73.943690
40.784670 -73.954070
40.752180 -73.958420
40.843000 -73.943040
40.724360 -74.006990
40.816600 -73.942750
40.843090 -73.943000
40.817840 -73.941840
40.843170 -73.942950
40.819090 -73.940930
40.782780 -73.955440
40.724490 -74.007020
40.706400 -74.016100
40.820340 -73.940020
40.783410 -73.954990
40.780220 -73.957310
40.756220 -73.973650
40.787900 -73.951720
40.785910 -73.953170
40.766640 -73.944590
40.706940 -74.013510
40.870180 -73.914590
40.764550 -73.972800
40.785290 -73.953610
40.731600 -73.994780
40.870280 -73.914820
40.784030 -73.954530
40.822310 -73.938580
40.829490 -73.935190
40.822930 -73.938120
40.795870 -73.955720
40.870360 -73.915010
40.824810 -73.936750
40.825420 -73.936300
40.826040 -73.935860
40.855970 -73.925130
40.849310 -73.930000
40.720760 -73.974920
40.778020 -73.981940
40.724590 -73.974130
40.757120 -73.997260
40.780570 -73.970060
40.863720 -73.931740
40.712920 -74.014000
40.792980 -73.948020
40.797750 -73.954320
40.722710 -73.987850
40.758970 -73.964500
40.759640 -73.964000
40.790470 -73.953880
40.647350 -74.499520
40.857950 -73.925080
40.725560 -73.982350
40.842790 -73.945250
40.752890 -73.989240
40.745850 -73.973640
40.754130 -73.988330
40.777780 -73.973800
40.842150 -73.942270
40.754750 -73.987890
40.759020 -73.958440
40.755370 -73.987440
40.788530 -73.951260
40.753360 -73.974640
40.756710 -73.986450
40.757530 -73.996700
40.757330 -73.986010
40.709390 -74.001510
40.758580 -73.985080
40.725420 -74.007040
40.759200 -73.984630
40.759840 -73.984170
40.710620 -74.007310
40.830900 -73.949730
40.758700 -73.998230
40.761090 -73.983260
40.824080 -73.948880
40.786600 -73.952660
40.757550 -73.954000
40.762330 -73.982350
40.846480 -73.932510
40.846180 -73.931830
40.762960 -73.981890
40.846010 -73.931570
40.758000 -73.966230
40.845670 -73.931450
40.845590 -73.931380
40.845520 -73.931250
40.845490 -73.931060
40.845480 -73.930840
40.764210 -73.980980
40.713640 -74.003630
40.765520 -73.980030
40.710190 -74.001520
40.766210 -73.979530
40.864080 -73.932380
40.737190 -73.974710
40.747170 -73.969010
40.864040 -73.932290
40.770390 -73.987620
40.755180 -73.961440
40.706920 -74.001540
40.748280 -73.968000
40.863940 -73.931970
40.845520 -73.931410
40.845390 -73.931420
40.845240 -73.931490
40.822620 -73.943500
40.823900 -73.942430
40.863910 -73.931900
40.766870 -73.979070
40.824550 -73.941950
40.767760 -73.978730
40.826410 -73.940590
40.863850 -73.931820
40.795550 -73.946150
40.827650 -73.939690
40.845020 -73.932060
40.844930 -73.932250
40.828290 -73.939240
40.731180 -74.010340
40.867060 -73.926830
40.730100 -74.005470
40.844100 -73.933190
40.854970 -73.939310
40.773660 -73.971070
40.855620 -73.931740
40.711620 -74.007320
40.744030 -74.008560
40.863670 -73.931730
40.830570 -73.935830
40.714280 -74.002580
40.710860 -74.003410
40.863610 -73.931730
40.771700 -73.978530
40.757200 -73.996250
40.771780 -73.977800
40.746390 -74.005100
40.705470 -74.015180
40.711230 -74.006470
40.858160 -73.925400
40.806290 -73.957720
40.844330 -73.932790
40.757940 -73.996950
40.757750 -73.996660
40.757610 -73.996450
40.757480 -73.996230
40.757360 -73.996020
40.806910 -73.957260
40.757090 -73.995550
40.756950 -73.995330
40.807540 -73.956800
40.756760 -73.995100
40.869580 -73.916270
40.756840 -73.995370
40.756510 -73.994960
40.794910 -73.946610
40.808800 -73.955880
40.756250 -73.994950
40.757140 -73.996110
40.809420 -73.955430
40.755930 -73.995100
40.829750 -73.938660
40.810680 -73.954510
40.755480 -73.995580
40.755340 -73.995750
40.859140 -73.922890
40.755100 -73.996150
40.755020 -73.996360
40.811360 -73.954010
40.754920 -73.996690
40.812050 -73.953540
40.754810 -73.997110
40.754780 -73.997250
40.754750 -73.997390
40.858400 -73.922860
40.754640 -73.997690
40.858400 -73.922990
40.758530 -73.977200
40.738660 -73.973690
40.754270 -73.998100
40.754110 -73.998210
40.763430 -73.950100
40.738360 -73.973800
40.737720 -73.988150
40.753630 -73.998390
40.711950 -73.989850
40.753360 -73.998490
40.763480 -73.988940
40.827420 -73.934910
40.827250 -73.934980
40.752170 -73.999330
40.851310 -73.942690
40.722330 -74.011850
40.764680 -73.991780
40.741470 -73.985420
40.851460 -73.942570
40.826700 -73.935430
40.764190 -73.949190
40.843430 -73.941630
40.779230 -73.987280
40.844200 -73.935650
40.757410 -73.996560
40.757320 -73.996450
40.757260 -73.996350
40.726290 -73.974130
40.745180 -73.982720
40.756920 -73.995590
40.726060 -73.972260
40.756810 -73.995360
40.825760 -73.934560
40.829770 -73.935240
40.784710 -73.958090
40.830540 -73.936110
40.783300 -73.954730
40.827660 -73.935440
40.827640 -73.935360
40.827610 -73.935320
40.756180 -73.995040
40.708660 -74.006010
40.755990 -73.995160
40.755890 -73.995270
40.755810 -73.995390
40.755620 -73.995690
40.717700 -74.012640
40.755370 -73.996120
40.820110 -73.934330
40.755100 -73.996630
40.754960 -73.997010
40.754870 -73.997290
40.762230 -73.970100
40.758760 -73.998370
40.758770 -73.998680
40.754610 -73.997880
40.754510 -73.998000
40.754410 -73.998090
40.759350 -73.996880
40.814020 -73.934760
40.813170 -73.935350
40.812110 -73.936130
40.753770 -73.998530
40.778800 -73.958020
40.753530 -73.998600
40.759620 -73.972010
40.758780 -73.998870
40.753080 -73.998790
40.752210 -73.999410
40.758880 -73.999430
40.751640 -73.999630
40.812600 -73.956810
40.751540 -73.999570
40.751800 -73.999640
40.799350 -73.943380
40.724620 -73.974480
40.707450 -74.011170
40.809540 -73.935960
40.757600 -74.000540
40.816900 -73.934340
40.816820 -73.934330
40.816890 -73.934620
40.766790 -73.996900
40.778180 -73.956540
40.706220 -74.003160
40.814830 -73.936600
40.791570 -73.962370
40.815540 -73.934090
40.816160 -73.934030
40.754200 -73.976320
40.757730 -73.959450
40.758690 -73.998130
40.758030 -73.997090
40.817100 -73.934390
40.816990 -73.934350
40.707450 -74.004060
40.707830 -74.004320
40.647350 -74.499520
40.708590 -74.004920
40.807590 -73.934090
40.852290 -73.929170
40.809410 -73.935680
40.708780 -74.005050
40.714250 -74.002610
40.813980 -73.934680
40.709090 -74.005510
40.734270 -73.999730
40.709550 -74.006430
40.733210 -73.984880
40.709870 -74.007050
40.806300 -73.937950
40.847930 -73.934740
40.721590 -73.974650
40.851420 -73.940130
40.807540 -73.937040
40.711530 -74.010460
40.734440 -73.983980
40.789290 -73.957370
40.808910 -73.936420
40.808280 -73.936880
40.855560 -73.934200
40.856760 -73.933610
40.857940 -73.926560
40.805790 -73.938690
40.856540 -73.932890
40.732850 -73.984020
40.811460 -73.934940
40.764670 -73.973560
40.807930 -73.934300
40.775560 -73.950330
40.748170 -73.968550
40.747120 -73.975910
40.792920 -73.933670
40.764270 -73.973010
40.647350 -74.499520
40.747350 -73.976100
40.734080 -73.983130
40.754990 -73.995230
40.755100 -73.995130
40.803190 -73.940590
40.739520 -73.986840
40.793600 -73.951600
40.738840 -73.985230
40.738160 -73.983630
40.796210 -73.949690
40.647350 -74.499520
40.737220 -73.981390
40.647350 -74.499520
40.748000 -73.970450
40.857870 -73.926620
40.754510 -74.006860
40.709530 -74.008410
40.709020 -73.999890
40.746170 -73.974660
40.801930 -73.941500
40.710160 -74.002260
40.799990 -73.974600
40.708690 -74.007280
40.756130 -73.985090
40.708220 -74.006530
40.802520 -73.972990
40.707380 -74.005480
40.806300 -73.970130
40.706850 -74.005000
40.857790 -73.926660
40.747250 -73.975970
40.746820 -73.975900
40.748060 -73.970440
40.810230 -73.934950
40.810540 -73.935180
40.802550 -73.941050
40.747300 -73.976030
40.747910 -73.968490
40.705480 -74.017910
40.747500 -73.968830
40.731150 -74.008920
40.766180 -73.997360
40.814160 -73.934180
40.801290 -73.941960
40.745750 -73.973490
40.755140 -73.995100
40.815710 -73.939680
40.746830 -73.975820
40.816660 -73.938990
40.702260 -74.009220
40.817900 -73.938080
40.749320 -73.969420
40.819140 -73.937180
40.717500 -73.985880
40.819770 -73.936720
40.858430 -73.928690
40.753580 -74.003520
40.767860 -73.978890
40.717310 -73.985500
40.776990 -73.963750
40.805120 -73.939180
40.748300 -73.970340
40.804440 -73.939670
40.721470 -73.983820
40.746780 -73.975480
40.803810 -73.940130
40.752150 -73.967590
40.782760 -73.943990
40.752670 -73.967210
40.782850 -73.943780
40.715770 -73.986830
40.746790 -73.976020
40.780310 -73.985780
40.766090 -73.997150
40.745820 -73.974250
40.832750 -73.935180
40.720170 -73.979080
40.781790 -73.986580
40.759250 -74.003430
40.747850 -73.968500
40.755210 -73.995030
40.756530 -73.995060
40.749230 -73.969540
40.714800 -73.987160
40.706830 -74.013710
40.714590 -73.987170
40.746750 -73.976130
40.747830 -73.970490
40.714370 -73.987170
40.716180 -73.981720
40.752500 -73.977960
40.710460 -73.986620
40.752670 -73.978010
40.746210 -73.974680
40.759160 -73.976740
40.758480 -73.975130
40.749120 -73.969680
40.757740 -73.973380
40.800430 -73.930660
40.757120 -73.971900
40.748080 -73.968500
40.755030 -73.995200
40.756440 -73.995030
40.746250 -73.974700
40.754500 -73.965690
40.747000 -73.975750
40.747880 -73.968490
40.753930 -73.964340
40.760600 -73.964320
40.751750 -73.999650
40.711590 -73.994260
40.753800 -73.964020
40.706290 -74.014230
40.706350 -74.014140
40.761230 -73.963880
40.706420 -74.014010
40.746170 -73.973700
40.852560 -73.936470
40.723880 -74.007680
40.706510 -74.013880
40.830070 -73.935290
40.724110 -73.992530
40.706610 -74.013770
40.863790 -73.919400
40.761950 -74.001060
40.706700 -74.013690
40.794340 -73.931430
40.746980 -73.975720
40.863020 -73.917550
40.707140 -74.013370
40.794380 -73.931650
40.746710 -73.976200
40.746290 -73.974720
40.709040 -74.012090
40.794270 -73.931580
40.747080 -73.975880
40.745840 -73.974160
40.765030 -73.992640
40.799970 -73.929760
40.748020 -73.968480
40.714100 -73.997390
40.748060 -73.968490
40.760810 -73.956970
40.747520 -73.968880
40.769560 -73.948400
40.729700 -74.009200
40.721650 -73.996380
40.768720 -73.949080
40.754710 -73.962260
40.800620 -73.929470
40.729820 -74.010470
40.753400 -73.963330
40.767650 -73.991140
40.728190 -73.995590
40.758910 -74.003360
40.728550 -73.996340
40.755080 -73.995940
40.729310 -73.997880
40.752290 -73.977620
40.752370 -73.977660
40.856990 -73.924670
40.772020 -73.976960
40.773940 -73.975950
40.774280 -73.975720
40.766700 -73.944660
40.755440 -73.962070
40.756050 -73.961620
40.756680 -73.961160
40.647350 -74.499520
40.765410 -73.952470
40.767770 -73.991430
40.737230 -73.975370
40.808330 -73.940860
40.740440 -74.009080
40.849840 -73.934960
40.740540 -74.011300
40.756090 -73.995090
40.823600 -73.949680
40.766920 -73.991320
40.711520 -74.003320
40.767030 -73.991570
40.832190 -73.940370
40.758710 -73.998320
40.724110 -74.007850
40.730430 -74.009060
40.865590 -73.928250
40.865500 -73.927550
40.721640 -74.007200
40.865630 -73.927320
40.865580 -73.927420
40.779470 -73.973570
40.751870 -73.977100
40.778330 -73.973010
40.739880 -73.973300
40.770580 -73.994240
40.740000 -73.973270
40.817180 -73.934460
40.739850 -73.973300
40.739960 -73.973280
40.776820 -73.974120
40.775380 -73.974020
40.775110 -73.974140
40.774840 -73.974360
40.707770 -74.000030
40.709030 -74.016970
40.843080 -73.945080
40.708770 -74.016060
40.817320 -73.960760
40.705930 -74.018000
40.709140 -74.015930
40.709330 -74.016760
40.709550 -74.017740
40.715770 -74.003420
40.721630 -74.007020
40.709360 -74.017880
40.785110 -73.967120
40.814420 -73.949390
40.721590 -74.007690
40.720190 -74.010980
40.785590 -73.967320
40.794390 -73.955100
40.817200 -73.960790
40.721520 -74.007830
40.712180 -73.989890
40.801620 -73.961100
40.721470 -74.007890
40.749250 -74.007930
40.768430 -73.991020
40.749340 -74.008190
40.768540 -73.991290
40.721350 -74.007980
40.744620 -74.002690
40.721270 -74.008010
40.782720 -73.959210
40.721190 -74.008020
40.714480 -73.991220
40.714660 -73.991130
40.779130 -73.962160
40.717750 -74.002490
40.715790 -73.990550
40.726260 -73.994400
40.721120 -74.008020
40.734790 -74.008430
40.716970 -73.989950
40.816520 -73.934870
40.771790 -73.990320
40.722480 -73.987120
40.711260 -74.004380
40.718900 -74.011290
40.758780 -73.997530
40.722660 -73.987010
40.816870 -73.960730
40.647350 -74.499520
40.647350 -74.499520
40.647350 -74.499520
40.736000 -73.993610
40.771180 -73.990770
40.720740 -73.986150
40.721810 -74.007920
40.854680 -73.923580
40.721040 -74.007990
40.799430 -73.929910
40.734460 -73.989910
40.711820 -74.004360
40.770910 -73.990830
40.770810 -73.990580
40.733290 -73.987180
40.819050 -73.960460
40.720900 -74.007830
40.767150 -74.019240
40.720160 -73.974970
40.732340 -73.984940
40.720790 -74.007490
40.731350 -73.982550
40.707500 -74.000260
40.720790 -74.007380
40.758730 -73.998450
40.831990 -73.935390
40.720810 -74.007300
40.720760 -74.007660
40.736140 -73.974910
40.720830 -74.007220
40.728460 -73.975710
40.805510 -73.965900
40.720860 -74.007160
40.806970 -73.937630
40.720900 -74.007090
40.720950 -74.007040
40.647350 -74.499520
40.801320 -73.930010
40.721220 -74.006920
40.851280 -73.939650
40.869700 -73.918100
40.721320 -74.006880
40.721370 -74.006870
40.721430 -74.006840
40.721490 -74.006810
40.721810 -74.006430
40.702170 -74.015910
40.701200 -74.014590
40.720980 -73.986940
40.711290 -74.004370
40.714410 -73.990260
40.798630 -73.973720
40.799160 -73.955340
40.714510 -73.990630
40.721690 -74.006820
40.721710 -74.007610
40.839770 -73.932590
40.714890 -73.991890
40.740350 -74.006050
40.780900 -73.964190
40.715620 -73.994270
40.716540 -73.996980
40.859670 -73.935650
40.712820 -74.004370
40.717550 -73.999310
40.773030 -73.978280
40.727870 -74.005420
40.860050 -73.935310
40.718430 -74.000530
40.732840 -74.002120
40.719900 -74.002600
40.647350 -74.499520
40.720370 -74.003250
40.720550 -74.003510
40.732420 -73.976400
40.771640 -73.990630
40.721350 -74.004630
40.861030 -73.935000
40.771520 -73.990330
40.722560 -74.006310
40.783670 -73.985410
40.790890 -73.963550
40.714840 -74.001420
40.800670 -73.942420
40.800310 -73.957990
40.724220 -74.008640
40.725260 -74.010020
40.779300 -73.988650
40.647350 -74.499520
40.707150 -74.001120
40.725830 -74.010880
40.714230 -74.003360
40.724130 -73.973410
40.711110 -74.004360
40.863200 -73.933750
40.816000 -73.960510
40.805580 -73.967900
40.775370 -73.987720
40.725160 -74.011040
40.763840 -73.998770
40.794340 -73.931290
40.705980 -74.014880
40.723990 -74.008460
40.720410 -74.012030
40.796110 -73.929760
40.757600 -73.992740
40.714560 -74.002420
40.743560 -73.992310
40.867380 -73.926400
40.770770 -73.978470
40.714720 -74.003160
40.731590 -74.005780
40.706700 -74.014160
40.717160 -74.002950
40.707670 -74.003100
40.706790 -74.013620
40.701260 -74.013150
40.769650 -73.979640
40.784100 -73.967490
40.722050 -74.009050
40.783260 -73.968430
40.745950 -73.998000
40.722200 -74.010560
40.781470 -73.969390
40.830210 -73.935340
40.779470 -73.971520
40.778690 -73.972350
40.778040 -73.973510
40.830330 -73.935420
40.869550 -73.918080
40.830410 -73.935510
40.709660 -74.004820
40.844460 -73.943850
40.830490 -73.935590
40.795050 -73.930130
40.795340 -73.929910
40.795580 -73.929750
40.795860 -73.929600
40.769210 -73.984760
40.725200 -73.995840
40.857250 -73.936650
40.736830 -74.003710
40.724430 -73.993450
40.735660 -73.998070
40.736180 -74.008320
40.732000 -74.010270
40.735970 -74.009910
40.761660 -73.974910
40.830560 -73.935960
40.818700 -73.961030
40.863790 -73.931770
40.746040 -73.998570
40.797230 -73.957000
40.766600 -73.986660
40.707950 -73.999590
40.746030 -73.998650
40.738130 -74.003870
40.767800 -73.989510
40.830450 -73.936280
40.709450 -74.000750
40.749530 -74.006550
40.746090 -73.999240
40.701180 -74.013120
40.723240 -73.988550
40.722890 -73.988790
40.796360 -73.929430
40.814080 -73.934720
40.776010 -73.987240
40.771320 -73.985880
40.796590 -73.929380
40.746480 -74.000120
40.720610 -74.008470
40.720870 -74.007960
40.871130 -73.919290
40.724270 -74.011260
40.712390 -74.003640
40.866430 -73.930460
40.723700 -74.007910
40.723850 -74.007710
40.865940 -73.929850
40.865650 -73.928410
40.724380 -74.007110
40.869630 -73.918060
40.718760 -73.975100
40.756760 -73.994670
40.862390 -73.918010
40.714620 -73.976880
40.722820 -73.988610
40.813710 -73.962250
40.772860 -73.989540
40.807780 -73.952910
40.735530 -74.003340
40.817090 -73.960790
40.647350 -74.499520
40.816980 -73.960770
40.812620 -73.963010
40.858930 -73.936690
40.720840 -74.007770
40.720800 -74.007720
40.816680 -73.960610
40.751520 -73.993940
40.816590 -73.960560
40.759280 -73.959260
40.869670 -73.918070
40.816460 -73.960520
40.707980 -73.999770
40.816350 -73.960490
40.820280 -73.959530
40.754760 -73.997610
40.820740 -73.959120
40.862500 -73.920190
40.816120 -73.960490
40.820990 -73.958650
40.869820 -73.930750
40.815880 -73.960560
40.869690 -73.918330
40.787220 -73.967920
40.814120 -73.961790
40.822340 -73.957610
40.822720 -73.957440
40.814040 -73.961840
40.819700 -73.960140
40.684440 -74.006880
40.742180 -73.974670
40.818020 -73.961780
40.727100 -73.976680
40.755310 -73.975430
40.816670 -73.963150
40.824490 -73.956270
40.710800 -74.003130
40.869540 -73.918320
40.816510 -73.963300
40.816390 -73.963430
40.716360 -74.001220
40.816190 -73.963580
40.812270 -73.963320
40.816060 -73.963690
40.712220 -74.003520
40.869510 -73.918280
40.869710 -73.918300
40.813950 -73.962160
40.711730 -74.007020
40.869510 -73.918170
40.815750 -73.963970
40.787920 -73.967440
40.720290 -73.974570
40.815510 -73.964140
40.755400 -73.996490
40.869720 -73.918150
40.814360 -73.961930
40.711120 -74.003400
40.755330 -73.991170
40.780640 -73.964390
40.724890 -74.004640
40.815260 -73.964100
40.781580 -73.961190
40.781660 -73.960960
40.814800 -73.961610
40.831700 -73.935420
40.710150 -74.001330
40.814980 -73.961490
40.767630 -73.982060
40.806910 -73.935560
40.815140 -73.961390
40.755950 -73.990720
40.717090 -74.002810
40.768140 -73.981320
40.863810 -73.931690
40.814520 -73.961800
40.731020 -73.975810
40.815240 -73.961350
40.758370 -73.958980
40.731380 -73.974970
40.810090 -73.953070
40.730260 -73.975860
40.815370 -73.961310
40.732420 -73.976660
40.815480 -73.961280
40.809920 -73.934950
40.712150 -74.005180
40.815680 -73.961230
40.705520 -74.007910
40.863820 -73.931530
40.815930 -73.961200
40.748680 -74.007670
40.815990 -73.961200
40.816190 -73.961230
40.816260 -73.961250
40.832290 -73.935260
40.831730 -73.935210
40.831390 -73.935190
40.816330 -73.961260
40.831070 -73.935160
40.830640 -73.935130
40.804700 -73.960060
40.816430 -73.961270
40.750030 -74.008250
40.754460 -73.962380
40.816470 -73.961270
40.769960 -73.973550
40.816810 -73.961210
40.755050 -73.961640
40.755420 -73.961080
40.755610 -73.960820
40.755760 -73.960660
40.756040 -73.960430
40.721830 -74.007100
40.751340 -73.978280
40.781380 -73.963530
40.816220 -73.961990
40.725630 -74.007290
40.711430 -73.981930
40.731070 -73.979030
40.730930 -73.978380
40.781630 -73.962740
40.730000 -73.977720
40.729760 -73.977790
40.732250 -73.980740
40.815960 -73.962270
40.768030 -73.981310
40.732960 -73.977800
40.772610 -73.976830
40.791800 -73.962450
40.754930 -73.995600
40.754920 -73.995530
40.754910 -73.995480
40.788920 -73.956410
40.754920 -73.995360
40.815850 -73.962350
40.791750 -73.978660
40.755030 -73.995100
40.755100 -73.995990
40.755120 -73.996020
40.755160 -73.996050
40.755190 -73.996060
40.784610 -73.969850
40.755270 -73.996050
40.755320 -73.995980
40.755090 -73.996370
40.813050 -73.963820
40.714510 -74.000740
40.738100 -74.010060
40.812860 -73.963870
40.863320 -73.928990
40.704950 -74.017390
40.724400 -74.006010
40.812470 -73.963900
40.724340 -74.006110
40.812290 -73.963880
40.724300 -74.006190
40.810750 -73.964420
40.778140 -73.981910
40.724260 -74.006290
40.724240 -74.006360
40.724230 -74.006490
40.724230 -74.006590
40.807590 -73.966970
40.724270 -74.006800
40.647350 -74.499520
40.724320 -74.006890
40.724370 -74.006970
40.710610 -74.001890
40.805980 -73.967970
40.786490 -73.952410
40.768180 -73.982450
40.748800 -74.000900
40.804850 -73.968550
40.803650 -73.969330
40.739660 -74.009860
40.806650 -73.935000
40.769850 -73.944460
40.769340 -73.943830
40.797880 -73.957070
40.778080 -73.981920
40.755250 -73.996340
40.802330 -73.970280
40.757710 -73.954930
40.718120 -74.014990
40.801050 -73.971220
40.758950 -73.953820
40.755830 -73.996300
40.806670 -73.934500
40.826320 -73.935790
40.758670 -73.952430
40.800810 -73.971390
40.768510 -73.982170
40.707370 -74.000980
40.755480 -73.995450
40.756060 -73.994920
40.756170 -73.995170
40.756330 -73.995550
40.728150 -73.993720
40.703980 -74.006480
40.703300 -74.007580
40.717670 -73.984830
40.647350 -74.499520
40.768460 -73.981530
40.810550 -73.967190
40.800080 -73.972330
40.800490 -73.974320
40.799910 -73.972540
40.763980 -73.954880
40.743470 -74.007230
40.799710 -73.972760
40.799480 -73.973000
40.730840 -73.975940
40.799250 -73.973220
40.734830 -73.998870
40.859360 -73.923310
40.732550 -73.977140
40.734250 -74.002970
40.733420 -73.979880
40.733230 -73.979640
40.732690 -73.979630
40.821260 -73.946070
40.732190 -73.980450
40.710770 -74.003200
40.797480 -73.974140
40.863810 -73.931610
40.797980 -73.974070
40.797810 -73.974110
40.797650 -73.974140
40.832190 -73.935140
40.797810 -73.929100
40.714810 -73.998040
40.797110 -73.974100
40.709150 -74.010540
40.716630 -73.985320
40.757340 -73.995010
40.827610 -73.934900
40.768320 -73.981430
40.707650 -74.000100
40.781810 -73.960700
40.796580 -73.974240
40.758690 -73.998070
40.789870 -73.957300
40.790320 -73.957060
40.790870 -73.956610
40.825330 -73.943810
40.733400 -74.008550
40.792340 -73.955040
40.793150 -73.955050
40.794600 -73.954610
40.795170 -73.953600
40.749260 -74.000450
40.795710 -73.953400
40.712110 -74.004140
40.795970 -73.953910
40.708750 -74.009660
40.795580 -73.954850
40.795650 -73.955580
40.795750 -73.955680
40.796020 -73.955690
40.797010 -73.954720
40.816290 -73.961540
40.768850 -73.972230
40.816280 -73.961490
40.865470 -73.931060
40.797840 -73.954280
40.816250 -73.961440
40.798010 -73.954280
40.853520 -73.938300
40.816230 -73.961390
40.852280 -73.938770
40.816200 -73.961350
40.851090 -73.939270
40.816160 -73.961320
40.851340 -73.941110
40.781850 -73.986690
40.816120 -73.961280
40.799470 -73.957300
40.816090 -73.961250
40.799550 -73.957760
40.799490 -73.958020
40.799350 -73.958200
40.799160 -73.958390
40.812260 -73.963810
40.812220 -73.963740
40.764150 -73.984740
40.701750 -74.015540
40.812200 -73.963650
40.776630 -73.983050
40.776610 -73.982890
40.777250 -73.982440
40.713840 -73.992740
40.797380 -73.957020
40.767700 -73.981540
40.710070 -74.001030
40.796710 -73.956770
40.812210 -73.963470
40.712190 -74.004150
40.776620 -73.982950
40.777210 -73.982340
40.795520 -73.957750
40.812230 -73.963390
40.755220 -73.975220
40.795040 -73.958940
40.754140 -73.976010
40.767610 -73.981950
40.754010 -73.975850
40.753880 -73.975790
40.753720 -73.975810
40.752220 -73.976880
40.752120 -73.977050
40.752140 -73.977150
40.757970 -73.959140
40.752230 -73.977390
40.754610 -73.975660
40.754310 -73.986860
40.711970 -73.997690
40.829440 -73.941940
40.768230 -73.981360
40.757660 -73.994810
40.817630 -73.960970
40.736010 -73.974820
40.709960 -74.000730
40.767610 -73.981840
40.736180 -73.974820
40.715640 -73.977910
40.711770 -74.002890
40.711630 -73.999840
40.647350 -74.499520
40.711870 -73.998740
40.797930 -73.933980
40.830890 -73.941360
40.768490 -73.981990
40.722360 -73.974330
40.711810 -73.999510
40.712060 -73.997790
40.736340 -73.974790
40.792560 -73.955020
40.771200 -73.970370
40.768350 -73.981460
40.736730 -73.974640
40.736850 -73.974570
40.725330 -74.006990
40.708810 -73.998490
40.780670 -73.987170
40.738430 -73.973490
40.794030 -73.976300
40.709640 -74.000340
40.768090 -73.981310
40.738630 -73.973310
40.801440 -73.929940
40.793320 -73.976570
40.735930 -73.974810
40.785560 -73.984370
40.793050 -73.976890
40.722510 -73.974250
40.711960 -73.997870
40.807170 -73.969470
40.792720 -73.977090
40.738760 -73.973230
40.786500 -73.983680
40.720830 -74.007690
40.768280 -73.981390
40.754310 -73.962530
40.786240 -73.983940
40.786020 -73.984300
40.771350 -73.982040
40.791540 -73.979060
40.780790 -73.954630
40.733810 -73.977870
40.708490 -73.999020
40.740040 -73.972700
40.723460 -73.996660
40.791350 -73.979290
40.789940 -73.980350
40.711050 -73.979810
40.789250 -73.980850
40.799050 -73.929080
40.785640 -73.984260
40.711260 -73.979180
40.712440 -74.003860
40.786770 -73.981230
40.705030 -74.008560
40.711470 -73.978780
40.754770 -73.962010
40.711590 -73.978600
40.786450 -73.981310
40.786310 -73.981370
40.711810 -73.978320
40.785720 -73.984740
40.785550 -73.984480
40.712690 -74.014210
40.709140 -73.999990
40.785610 -73.984660
40.810740 -73.935150
40.711730 -74.003230
40.707910 -74.002620
40.800870 -73.958180
40.729030 -74.032040
40.780630 -73.986540
40.743840 -74.008400
40.756260 -73.960250
40.792380 -73.964180
40.710090 -73.989790
40.822220 -73.957860
40.822090 -73.958270
40.821770 -73.958540
40.736370 -73.974590
40.730200 -74.035720
40.736560 -73.974540
40.711670 -74.003290
40.765140 -73.952060
40.736730 -73.974470
40.767620 -73.982000
40.737880 -73.973680
40.755990 -73.995050
40.738460 -73.973270
40.738640 -73.973140
40.849200 -73.943400
40.738850 -73.973000
40.757830 -73.987180
40.739000 -73.972920
40.739160 -73.972880
40.781810 -73.985170
40.708560 -73.999520
40.868160 -73.911910
40.841800 -73.944210
40.770890 -73.943150
40.739330 -73.972820
40.799860 -73.929620
40.783170 -73.984440
40.770910 -73.942840
40.782480 -73.984770
40.780060 -73.944120
40.780230 -73.944140
40.780480 -73.944200
40.730810 -73.979960
40.713180 -73.992410
40.834280 -73.945350
40.781900 -73.944410
40.782150 -73.944380
40.834940 -73.946910
40.769700 -73.948730
40.647350 -74.499520
40.835160 -73.945600
40.783870 -73.942970
40.783700 -73.943220
40.783530 -73.943420
40.783350 -73.943580
40.838050 -73.946640
40.714420 -74.000540
40.782330 -73.944170
40.838550 -73.945850
40.870670 -73.930320
40.839230 -73.945540
40.816070 -73.962160
40.782640 -73.944170
40.773590 -73.970730
40.773720 -73.971290
40.782160 -73.944220
40.781960 -73.944260
40.781740 -73.944270
40.790310 -73.939560
40.834850 -73.939700
40.713810 -74.003260
40.802040 -73.933800
40.796060 -73.945420
40.716640 -73.995800
40.711610 -74.003320
40.795490 -73.975850
40.756220 -74.005230
40.708830 -73.997060
40.647350 -74.499520
40.847420 -73.943600
40.768460 -73.949500
40.647350 -74.499520
40.838500 -73.939830
40.800500 -73.958530
40.743120 -74.008710
40.839640 -73.946120
40.752370 -73.958000
40.848280 -73.943310
40.753120 -73.966690
40.716000 -73.996140
40.856690 -73.929330
40.714090 -73.997510
40.715790 -73.976050
40.712340 -73.977830
40.722410 -74.006690
40.712080 -73.977900
40.830240 -73.949680
40.711010 -73.979530
40.830960 -73.949460
40.852720 -73.938640
40.831690 -73.949250
40.846760 -73.933770
40.831840 -73.949280
40.760070 -73.957480
40.831960 -73.949310
40.647350 -74.499520
40.754910 -73.995410
40.831390 -73.950800
40.832210 -73.949430
40.832330 -73.949520
40.828620 -73.934890
40.647350 -74.499520
40.777970 -73.989840
40.825060 -73.935460
40.647350 -74.499520
40.814710 -73.934530
40.815640 -73.934440
40.833980 -73.949340
40.854820 -73.940020
40.788770 -73.956960
40.647350 -74.499520
40.815950 -73.934260
40.647350 -74.499520
40.829080 -73.952080
40.834350 -73.949090
40.852130 -73.942550
40.815720 -73.962430
40.647350 -74.499520
40.866440 -73.932170
40.748920 -73.970500
40.777260 -73.990400
40.774960 -73.956800
40.782590 -73.969380
40.793450 -73.976960
40.756070 -73.960480
40.793660 -73.976980
40.647350 -74.499520
40.755230 -73.996070
40.793860 -73.976960
40.647350 -74.499520
40.794050 -73.976930
40.647350 -74.499520
40.707670 -74.015520
40.780870 -73.960890
40.794230 -73.976880
40.647350 -74.499520
40.794420 -73.976820
40.647350 -74.499520
40.647350 -74.499520
40.794570 -73.976740
40.752900 -73.963980
40.728260 -74.009480
40.794740 -73.976640
40.794890 -73.976540
40.815020 -73.934340
40.761950 -74.001420
40.795050 -73.976400
40.747770 -73.985040
40.795210 -73.976250
40.752380 -73.964640
40.795360 -73.976070
40.807540 -73.934760
40.707680 -74.000310
40.706170 -74.017930
40.766080 -73.972600
40.807400 -73.935010
40.816340 -73.961800
40.723880 -73.996950
40.768680 -73.971680
40.861630 -73.924790
40.784370 -73.969390
40.768780 -73.971710
40.797880 -73.973460
40.781980 -73.971530
40.749480 -73.998360
40.859510 -73.928050
40.774660 -73.992310
40.799140 -73.972530
40.768150 -73.973150
40.861390 -73.925320
40.767000 -73.972950
40.799700 -73.971920
40.785950 -73.967470
40.783090 -73.968780
40.861430 -73.924660
40.800330 -73.971450
40.861740 -73.924060
40.862350 -73.922450
40.800960 -73.971010
40.861610 -73.924270
40.812690 -73.963900
40.803560 -73.969120
40.717840 -73.996160
40.860730 -73.927410
40.804200 -73.968640
40.718110 -73.996000
40.647350 -74.499520
40.711740 -74.007860
40.711880 -74.007990
40.718360 -73.995870
40.804460 -73.968360
40.802570 -73.930780
40.859080 -73.927670
40.804580 -73.968200
40.773460 -73.993140
40.804720 -73.968010
40.722720 -73.994150
40.804730 -73.967980
40.804790 -73.967930
40.846100 -73.936070
40.804860 -73.967910
40.711710 -74.002780
40.804920 -73.967910
40.805180 -73.967850
40.805270 -73.967820
40.805380 -73.967770
40.805450 -73.967720
40.754170 -73.984590
40.805760 -73.967510
40.708140 -74.000070
40.821700 -73.956790
40.748300 -73.980290
40.823540 -73.955380
40.824730 -73.954340
40.825820 -73.953010
40.826420 -73.952530
40.794200 -73.962830
40.827670 -73.951320
40.828290 -73.950850
40.724270 -74.006260
40.799240 -73.943100
40.830070 -73.950010
40.830310 -73.949950
40.830560 -73.949860
40.745240 -74.008150
40.712430 -74.003740
40.831190 -73.949640
40.813070 -73.963820
40.822310 -73.934390
40.766150 -73.946620
40.808220 -73.966510
40.750010 -74.008440
40.647350 -74.499520
40.758220 -73.996170
40.757960 -73.996680
40.813210 -73.963750
40.876600 -73.909490
40.709480 -73.994020
40.760070 -74.002830
40.767430 -73.981660
40.746340 -73.974720
40.850500 -73.932860
40.724240 -74.006690
40.767620 -73.981750
40.739390 -74.009680
40.809480 -73.951660
40.712410 -74.004500
40.749980 -74.006170
40.710870 -74.003310
40.800030 -73.954850
40.790300 -73.981650
40.803240 -73.930740
40.712440 -74.003910
40.790860 -73.981300
40.831620 -73.949580
40.840920 -73.944490
40.780710 -73.986790
40.754310 -73.998190
40.831860 -73.949570
40.847010 -73.930460
40.838210 -73.946970
40.832070 -73.949580
40.796000 -73.976320
40.847340 -73.930300
40.832280 -73.949610
40.847530 -73.929490
40.833690 -73.945320
40.832520 -73.949660
40.708030 -74.000000
40.811470 -73.950210
40.838900 -73.945610
40.799310 -73.929120
40.836560 -73.949100
40.837970 -73.948020
40.833390 -73.950160
40.838110 -73.948080
40.758190 -73.996100
40.837060 -73.948990
40.801120 -73.929620
40.838870 -73.946430
40.838620 -73.946590
40.838370 -73.946800
40.752840 -73.983340
40.734470 -74.008460
40.832650 -73.949610
40.811740 -73.934740
40.863000 -73.932220
40.851670 -73.925780
40.801660 -73.929890
40.725980 -74.011470
40.833870 -73.948290
40.802240 -73.970070
40.705010 -74.012620
40.843660 -73.930630
40.813090 -73.965440
40.813540 -73.965130
40.704970 -74.008910
40.813760 -73.964990
40.801910 -73.930410
40.815470 -73.963930
40.802120 -73.930670
40.816420 -73.963180
40.802860 -73.930410
40.803300 -73.929960
40.705440 -74.008000
40.803740 -73.930580
40.828700 -73.952380
40.803880 -73.930730
40.826570 -73.944810
40.803580 -73.931240
40.804510 -73.945690
40.823890 -73.956580
40.852210 -73.933220
40.725760 -74.010740
40.702460 -74.013860
40.805130 -73.945230
40.703880 -74.008400
40.828230 -73.935010
40.806390 -73.944300
40.802210 -73.933050
40.826640 -73.954110
40.803430 -73.931150
40.827480 -73.953340
40.829830 -73.935050
40.810200 -73.957350
40.830870 -73.935530
40.810110 -73.957250
40.856890 -73.928290
40.809600 -73.957140
40.831000 -73.935890
40.809630 -73.957130
40.810290 -73.957490
40.810260 -73.957430
40.810230 -73.957390
40.809520 -73.957170
40.809710 -73.957110
40.809820 -73.957110
40.810340 -73.957620
40.813930 -73.948410
40.701810 -74.012660
40.710830 -74.003200
40.865560 -73.928090
40.704880 -74.013330
40.875770 -73.925170
40.879080 -73.920130
40.866860 -73.930970
40.647350 -74.499520
40.751080 -73.986820
40.818380 -73.934090
40.792340 -73.980480
40.748420 -73.969100
40.775680 -73.973980
40.862650 -73.934070
40.774720 -73.974690
40.804820 -73.966230
40.647350 -74.499520
40.793640 -73.957390
40.823970 -73.955160
40.768800 -73.970310
40.824190 -73.955030
40.756110 -73.956320
40.794450 -73.955710
40.824450 -73.954840
40.755490 -73.955810
40.745260 -74.008330
40.824730 -73.954580
40.842220 -73.931140
40.856070 -73.939030
40.756480 -73.955570
40.857050 -73.938210
40.756390 -73.955650
40.799300 -73.959120
40.756020 -73.955330
40.754870 -73.957440
40.844210 -73.930310
40.754860 -73.957360
40.754870 -73.957260
40.872810 -73.928250
40.754900 -73.957150
40.754930 -73.957060
40.754990 -73.956960
40.647350 -74.499520
40.755050 -73.956890
40.647350 -74.499520
40.647350 -74.499520
40.647350 -74.499520
40.647350 -74.499520
40.820600 -73.958460
40.721300 -73.994700
40.754950 -73.982300
40.754960 -73.984020
40.755330 -73.956690
40.806070 -73.965290
40.800900 -73.930040
40.755420 -73.956680
40.755500 -73.956690
40.858650 -73.934490
40.755580 -73.956720
40.755620 -73.956750
40.722300 -73.997120
40.818960 -73.959660
40.846250 -73.931990
40.845910 -73.931530
40.800950 -73.971280
40.820800 -73.958310
40.828780 -73.942330
40.753080 -73.963530
40.722660 -73.997980
40.753630 -73.963120
40.753780 -73.963000
40.735070 -73.974990
40.835670 -73.935060
40.848100 -73.930410
40.871120 -73.930090
40.847450 -73.929310
40.723790 -74.000360
40.864510 -73.933740
40.724550 -74.001930
40.859380 -73.937170
40.742390 -74.008860
40.830710 -73.936100
40.800700 -73.971490
40.850860 -73.944100
40.849890 -73.944940
40.706960 -74.001690
40.821740 -73.935330
40.726070 -74.009900
40.781350 -73.963590
40.726150 -74.010820
40.849430 -73.945130
40.784240 -73.958910
40.859370 -73.934530
40.785720 -73.984220
40.706070 -74.003230
40.715600 -73.986920
40.830020 -73.939270
40.848980 -73.945250
40.705550 -74.004040
40.754720 -73.977870
40.812210 -73.963690
40.848630 -73.945290
40.772840 -73.993340
40.802530 -73.953020
40.805620 -73.967920
40.805130 -73.968120
40.709550 -74.017800
40.755290 -73.996580
40.721940 -74.006560
40.785570 -73.984710
40.753810 -73.975700
40.722160 -74.006500
40.804340 -73.957290
40.770860 -73.947100
40.714370 -74.000450
40.706110 -74.017780
40.869870 -73.920890
40.721620 -74.007380
